0.061739 0.163182 -0.554125 -0.485031 0.519944 -0.0231636 0.865658 -0.603809 0.28721 0.946532 -0.369304 0.614002 0.489375 -0.409871 -0.499191 0.948851 -0.393902 0.00442517 0.577013 -0.0770592 0.595447 -0.257485 -0.0801111 0.194983 0.959166 0.866573 0.641224 -0.463363 -0.937742 0.238868 -0.720695 -0.0456252 -0.980468 0.114551 0.280998 -0.456572 -0.469838 -0.875315 -0.647345 -0.540393 0.482917 0.522404 0.636486 0.129296 0.127215 0.305403 -0.756389 0.169221 0.617996 -0.596422 0.375873 -0.906303 -0.20951 0.816706 0.375774 0.823969 -0.0111393 0.308267 0.879625 0.66216 -0.430001 0.845517 -0.266167 -0.137288 -0.305544 -0.138218 -0.559862 -0.830342 -0.945925 -0.645277 -0.558524 0.948661 0.361132 0.028358 -0.770309 0.622449 0.908109 0.83427 -0.180129 -0.848751 -0.403891 0.789593 0.169835 0.312174 0.737053 0.952879 0.69638 0.706271 0.715288 0.279208 0.593786 -0.0733152 -0.386038 0.707418 0.384925 0.497478 -0.348283 -0.515835 0.652719 -0.225145 -0.0254859 0.448737 1.23314 0.0574473 -0.39247 0.662668 -0.272259 0.741092 0.0894948 0.134545 -0.242774 0.623219 0.971007 -0.410502 0.251531 -0.790244 -0.916139 -0.197989 0.511823 -0.406695 0.834241 0.986769 0.315083 0.0144769 -1.09261 0.26765 0.11571 -0.74093 0.0242375 1.53832 0.818775 0.517946 -0.127926 -0.774471 0.866925 0.93317 0.7151 0.606684 0.728103 -0.426008 0.473556 0.169408 0.792788 0.116019 0.650043 0.609624 1.17794 -0.526919 1.06802 -0.690441 0.0118764 -1.24181 0.154903 -1.0295 0.992885 0.139618 1.52788 1.50511 0.511427 -0.468455 -0.746687 0.0306678 0.493026 0.95789 0.541884 -0.667066 -0.0105828 0.599965 -0.374371 0.490084 -0.894557 -0.434796 0.928122 1.09683 0.0739569 0.155695 0.192764 -0.132993 0.237187 -0.140459 -0.118182 0.267564 0.115813 -0.391313 -0.555855 -0.509842 0.739143 0.988708 0.699524 0.613424 0.675934 0.727315 0.610417 -0.100533 0.25767 0.0752209 -0.798085 -0.427216 -0.851647 -0.496962 0.605902 0.00176273 -0.296764 1.03056 0.0862101 0.376482 0.178775 -0.135898 1.00608 0.0292128 0.250355 -0.103948 2.06513 0.0219829 1.57073 1.68691 1.12219 0.806458 0.513148 0.863084 0.46077 -0.164283 0.0405088 -0.544751 -0.329614 0.442798 -0.637057 -0.913195 0.488741 -0.113383 0.75124 -1.41789 0.543141 -0.0992091 0.588304 0.390394 -0.587369 0.241596 0.630737 0.521213 1.88363 2.11538 0.374136 0.10488 0.844233 -0.15826 -0.140602 -0.245622 -0.857698 -0.408654 -0.457684 -0.810151 -0.817069 -0.950433 -0.0853176 -1.04909 0.048167 -0.656332 -1.47866 -1.6799 -0.0640052 -0.676874 -0.59197 -1.4964 -0.420063 -0.0961574 -0.400248 0.754124 -0.93403 -1.38488 -1.09806 -1.58974 -1.0006 -0.693715 -0.808009 0.244004 -0.478899 -0.667056 0.493427 0.43158 0.445967 0.261048 0.133967 0.196266 0.251105 -1.31124 -0.560226 -1.00573 -1.22304 -1.97928 -1.85503 -0.783657 -0.117249 0.657092 0.781066 -1.0137 -1.35508 -2.90772 -1.84344 -3.10522 -2.28038 -1.55619 -0.819119 -0.693245 0.155082 -0.248427 1.03073 -0.877055 -0.344158 -0.129659 0.388638 -0.96847 0.380319 0.19617 -1.85032 -1.96312 -1.7915 -0.74123 -0.751411 -0.747903 1.6655 0.153766 -0.366853 -2.1206 -1.42649 -2.57449 -1.72978 -1.51301 -2.27903 -2.26527 -2.43165 -0.440992 -0.725105 -0.968886 0.243331 -0.996433 -0.31016 -0.192689 0.436305 -0.665188 0.0400102 -0.840848 0.43211 -0.977276 0.331526 -0.0764963 0.833117 1.87797 1.58145 0.0445837 -0.649067 -0.868072 -0.906625 -2.24623 -1.3793 -2.24962 -1.40164 -1.73324 -0.563849 -0.294282 0.61993 0.237702 0.146665 0.0326397 0.737236 0.926065 0.445917 -0.571562 0.579196 -0.0879548 1.24292 0.810925 0.2016 0.117885 0.588255 1.57763 0.280965 -0.675766 -0.554296 -1.92945 -1.71482 -0.441722 -0.68953 -1.12589 -0.597614 -0.955194 -0.0379067 0.742754 0.378162 -0.315649 0.508543 0.0290636 0.559801 0.998704 0.836229 -0.557208 -0.540098 -0.410611 -0.08489 0.979587 0.611224 1.67681 0.402888 -0.857154 -1.20626 -1.86857 -1.5771 0.304476 -1.14274 -1.31928 0.143475 -0.732082 0.463678 -0.268446 0.0894687 0.347186 -0.0154647 0.890977 0.44415 -0.970954 -0.430898 0.24537 -0.425875 0.534203 0.590275 0.101376 0.519945 0.802409 0.0757445 0.0867968 0.169848 -1.06649 -0.791311 -1.76083 -0.993825 -1.40778 -1.12211 -0.68018 -0.427642 -0.538697 1.76457 1.20618 1.16384 -0.1576 0.338624 0.887387 -0.780652 -0.19344 0.907063 -0.203085 0.351782 -0.913061 0.322055 -0.0365607 -1.10004 -1.04061 -0.0218272 -0.211957 -0.6983 -1.01761 -0.82405 -1.33472 -0.026637 -0.850403 -0.0234222 -1.22661 0.0723372 1.01162 1.99486 0.560256 1.0095 0.63835 0.236725 0.733323 -0.165133 -0.311288 0.718009 -0.247621 0.551379 -0.563093 -0.139826 -0.874687 -0.404018 -0.974057 0.151606 0.364883 -0.233493 -0.959286 -1.11754 -0.57623 -1.74353 -2.00977 -1.01281 -0.744708 1.30566 1.51919 1.1834 1.87192 0.117111 0.317375 0.800582 -0.7807 0.226387 -0.349076 0.799981 -0.157028 0.582073 0.282424 0.882783 -0.137731 -0.611296 -0.927478 -1.14117 0.600379 -1.33773 -0.056064 -2.47852 -2.3667 -1.66066 -0.564366 0.363564 -0.782935 0.460897 1.60881 1.37848 2.26456 1.36338 0.77241 0.270423 0.32787 -0.16103 -0.599117 0.822443 -0.42016 -0.616153 -0.329987 0.814593 0.630655 0.392827 -1.19248 -0.269449 0.412536 -1.09473 -0.280708 -1.28024 -1.05278 -0.889865 0.58429 0.969881 0.92427 2.29876 1.25334 0.0271312 0.117664 0.544767 0.609233 0.631884 -0.106017 0.0916528 0.677521 0.297281 -0.91952 -0.402258 -0.518156 0.256956 0.493315 0.0141021 0.339459 0.641544 0.165118 0.633138 0.474434 0.730876 1.04799 0.593386 1.02071 1.17274 0.795016 0.274075 -0.700658 -0.53606 0.806004 0.0823102 -0.71949 0.674137 0.108865 0.587194 -0.436734 -0.507859 -0.907768 -0.687739 -0.562012 -0.181936 -0.0787981 -0.501033 0.398838 0.595832 -0.0575796 0.863986 0.664601 0.700667 0.644025 1.42723 0.695314 0.314544 -0.215516 0.36776 -0.409768 0.932367 0.960281 0.862559 0.616015 -0.453656 0.509267 -0.43293 -0.318057 -0.528245 -0.388956 0.0248546 -0.0736435 -0.604498 0.869423 -0.0626552 -0.0675282 -0.39973 1.2725 0.640403 1.23733 0.564971 0.26922 -0.0795988 0.601072 0.438567 0.861373 0.0169924 0.703441 0.520901 -0.568219 0.277195 -0.482347 0.23275 -0.898137 0.471314 -0.659833 0.456343 -0.442488 -0.859455 0.707986 0.136368 -0.168177 0.138267 0.795974 -0.747241 1.34863 0.962883 0.342317 -1.02323 -0.567501 1.29933 -0.77455 -0.709824 0.327738 0.803096 -0.683951 -0.245363 -0.741923 0.46685 0.348188 -0.430686 -0.169427 -0.803555 0.489486 0.683462 0.940367 -0.529251 -0.442632 0.775852 -0.736729 -0.489915 0.743806 -0.201449 1.28917 0.0655402 0.660288 0.180818 0.759322 0.773098 0.922715 0.479855 -0.0477406 -0.28477 0.225481 -0.557766 0.605436 -0.165724 -0.810355 0.00640254 0.0321817 -0.236915 0.45909 0.961791 -0.0539873 -0.27632 0.597667 -0.709591 0.837619 -0.191034 0.133237 -1.03641 0.0201973 -0.10518 -0.62923 1.02603 0.567755 0.189498 -0.339711 -0.411202 0.539315 0.635135 -0.698141 0.970258 -0.52353 -0.56605 0.457434 0.46518 -0.0991547 -0.90289 0.394696 -0.896786 0.391766 -0.369366 -0.439802 0.951855 -0.136952 0.876066 0.129575 0.710034 0.533132 0.131871 0.103955 -0.179802 -0.041422 -0.0679137 -0.784043 1.01058 -0.0289464 -0.418257 -0.202266 -0.155758 0.593111 0.0405855 0.906714 0.724052 0.093173 0.577136 -0.657643 -0.578295 -0.0209052 -0.84228 0.357891 -0.314859 0.512524 -0.177111 0.84429 0.904835 0.346362 -0.884466 0.67379 -0.0182839 0.253067 -0.719744 0.377583 0.560908 0.693507 -0.128374 -0.433911 -0.0645318 0.275821 0.576215 -0.264626 0.998901 -0.809992 -0.934996 -0.0857875 -0.51384 0.785943 0.717582 0.795953 -0.157506 -0.846431 -0.0194403 -0.118015 0.0413526 -0.0600299 0.210669 -0.791253 0.653981 0.389439 -0.199019 0.219275 0.485397 -0.314371 -0.595264 -0.658803 0.0892056 -0.343364 0.0696738 0.835017 -0.525864 0.906552 -0.905698 0.473861 -0.685965 0.434126 -0.579882 0.617908 -0.025483 -0.19614 -0.629122 0.247606 -0.323689 -0.0622499 0.552933 0.516395 0.0736971 -0.468812 0.710615 -0.653969 0.577509 -0.666401 -0.540465 -0.189941 -0.0845658 -0.932043 -0.603493 -0.519035 -0.269448 -0.668752 0.905698 -0.221412 -0.805048 -0.629444 0.978454 0.52574 -0.534179 0.86184 0.102694 0.325649 0.428665 0.721585 0.183352 -1.15469 -0.613986 -0.979423 0.804559 0.502707 -1.00971 -0.837153 -0.770688 -0.341231 -0.463565 0.807691 -0.337074 -0.741174 -0.637502 -0.346965 0.0181586 -0.983642 -0.670278 0.699026 -0.0368358 0.16169 0.313708 0.477062 0.120522 0.19008 0.605001 -0.907581 -0.890204 -0.848506 0.615302 0.318983 -0.928154 -0.0246416 0.123479 -0.614563 -0.360277 -1.05318 0.270678 -0.928794 0.123104 0.848546 -0.656393 0.812793 -0.977116 -0.825251 -0.526414 3.05176e-05 0.0924406 -0.0208901 -0.72226 -0.992502 -0.247259 0.453696 -0.495765 0.0962455 -1.52667 -0.555546 0.147723 0.375204 -0.677411 0.415199 0.176859 -1.22855 -0.550892 0.349502 -0.117118 -0.4504 0.548853 0.460872 0.23544 -0.5047 -0.713134 0.679189 -0.228675 -0.423017 -0.755845 1.00191 0.449956 -0.0950609 0.297449 -0.0295241 0.204168 -0.849769 -0.437517 0.0525548 -0.678996 0.41877 -0.870009 -0.0995689 -0.323777 0.434736 0.570714 0.39591 0.418816 0.544062 0.67167 -0.490759 0.513934 -0.0178976 -0.763993 -0.768303 0.970458 0.565111 0.879397 -0.761119 -0.385224 -0.30797 -1.09401 0.490169 -0.726107 -0.432514 -0.479388 -1.01805 0.0977435 -1.19655 -0.444607 -0.915809 -0.494689 -0.260396 0.225695 0.184114 0.258624 0.0497049 1.54385 -0.369755 -0.546966 -0.803663 -1.05049 0.813245 -0.798578 -0.658791 0.559842 0.912207 0.19613 -0.240404 -0.827326 0.152621 -0.784056 -0.55111 0.186281 0.253087 -0.738962 0.318853 -0.366586 0.608618 -0.146215 0.0838184 0.381248 0.807562 0.934673 0.688728 0.620132 0.97706 0.320037 -0.707036 -0.403868 -0.212312 -0.488193 -0.327513 -0.735325 -0.677802 0.891027 -0.356058 0.0329653 0.260328 -0.932793 -0.0715804 0.968212 -0.516254 0.0883236 -0.301396 0.343171 0.924459 0.610675 0.377884 0.0720709 0.836222 1.1239 1.25186 0.897719 0.552575 -1.04417 0.0982774 0.515429 0.870992 -0.658925 -0.960372 0.143978 -0.897944 -0.113249 0.984283 -0.135832 1.40124 -0.289231 0.0285339 -0.078344 -0.491779 0.353205 1.17574 -0.0752134 0.514422 0.209182 0.67192 0.485725 1.46685 0.724504 0.28947 0.271369 1.31004 0.165238 -0.125038 -0.809651 -0.650469 0.125523 0.574882 0.474442 -0.652068 0.171873 0.121385 0.379707 0.367193 0.0167147 -0.676089 -0.712109 -0.23311 0.343846 -0.0571467 -0.722066 0.0294326 -0.953074 -0.0198673 -0.0146587 -0.213707 1.61577 1.17243 1.55158 0.609694 -0.714434 -0.567273 0.779223 -0.118676 0.21824 -0.949479 -0.536139 -0.847863 0.462866 0.279626 0.380042 -0.564451 -0.0985231 0.0276914 -0.334524 0.594923 -0.309803 -1.03297 -0.47941 -0.641496 -1.60273 -0.527361 -1.97447 -0.358527 1.45477 0.740172 1.48874 0.18749 0.573965 0.690152 -0.998972 0.349398 -0.685781 0.350298 -0.460994 -0.0383901 -0.715379 1.16302 1.50453 -0.304114 -0.0932414 -1.41493 0.385696 -0.046536 0.487476 -0.897927 -0.281375 -1.31417 -0.861759 -1.45058 -0.906088 1.03193 0.135255 0.732531 -0.290843 1.05356 0.349576 -1.04418 0.581374 -0.610216 -0.433943 0.881886 -0.126084 -0.14681 -0.476267 1.08318 1.16604 1.19754 0.0425176 0.506495 0.145604 0.0914829 -1.05986 -0.277961 -0.623168 -1.13733 -1.09739 -1.65424 -0.880182 0.135267 0.129836 0.472992 -0.252702 -0.524271 -0.805995 -0.955702 0.0648442 -0.367045 -0.421125 0.331648 -0.0967946 0.00205885 0.237418 -0.167945 -0.0291778 0.53319 0.874819 0.483386 0.288497 -1.35953 -0.350539 -1.60532 -0.814621 -0.627512 -1.67112 -1.33403 -0.039533 0.815555 -0.163617 0.813845 0.296428 0.404751 0.743886 -0.0611981 -0.862644 -0.393048 0.471603 0.236426 -0.644725 -0.811762 1.33496 1.19609 0.0358475 1.25041 0.0379348 0.703336 -0.453264 -2.30192 -0.612185 -1.44029 -0.422577 -1.97158 -1.13706 -0.417201 -0.604022 -0.78148 0.300047 0.311786 0.526063 -0.484458 0.155015 0.667869 0.653999 0.211517 0.192114 -0.213458 0.542922 0.00997825 0.908851 0.747893 0.64212 1.17658 1.72964 -0.305702 -1.13044 -1.64697 -0.799261 -1.0905 -1.10969 -1.21349 -0.916066 -0.566973 0.312853 0.0273256 0.180827 0.639595 -0.217256 -0.546251 0.273346 0.790564 0.885931 0.722492 -0.726005 -0.693524 -0.276272 -1.00212 0.0546669 0.208127 1.021 1.38654 1.82304 0.00486823 -1.10138 -0.913662 -1.1616 -1.32165 -1.08959 -0.560707 -0.839121 -0.951777 -1.25713 0.416551 1.23203 0.808534 -0.811582 0.318871 0.100872 0.0271685 0.764869 0.256078 0.221839 0.847957 -0.933931 -0.303609 0.623104 0.854811 -0.357349 1.65077 0.84094 0.570493 -0.715439 -1.06234 -1.18587 0.00146967 -1.13159 -0.620017 -0.233121 -1.16328 -0.135331 -0.929832 0.713386 -0.113464 0.259681 0.645455 -0.804348 -0.0310957 -0.653545 -0.428147 -0.286843 0.334147 -0.081257 0.0266572 0.659787 0.94704 -0.147745 0.283324 0.116898 0.733184 0.221036 -1.48165 -1.0917 -0.0416832 -0.451561 0.29359 -1.4151 0.314235 -1.63745 -1.40519 0.426591 0.878926 -0.632189 -1.18446 -0.318803 -0.531362 0.746857 -0.685168 -0.195654 0.692618 -0.86 0.693136 0.23966 0.72365 0.410002 -0.466189 0.188047 -0.531044 -0.43731 0.429939 0.662667 0.500071 -0.16233 -0.741128 -0.165739 -1.23027 -0.00720384 -0.865815 -0.256903 1.24325 0.0517447 -0.627925 0.812086 -0.159009 -0.0877243 -0.569566 -0.672109 0.413373 -0.642357 0.827152 -0.118099 -0.415573 0.66227 -0.453006 0.142182 -0.336221 0.911135 -1.0038 -0.525762 -0.355901 -0.841014 0.0849625 -0.668962 0.396304 -1.36631 -0.826945 0.0748738 -0.133455 0.299332 -0.355677 -0.237599 0.898826 -0.030276 -0.167878 -0.331706 0.970824 0.344711 0.110689 0.0141492 -0.089395 0.45301 -0.215908 -0.141398 0.273259 -0.0368398 0.238372 0.147142 -0.0693201 -0.732907 0.120426 0.226169 0.134351 0.372697 0.139041 0.345142 0.0252268 0.275363 0.575767 0.13404 -0.624218 0.876289 -0.797471 0.104709 -0.454268 0.392274 0.476119 0.471333 -0.169453 -0.256232 0.476076 -0.286955 0.256538 0.34821 -0.487414 0.469855 0.417708 -0.244342 -1.16483 -0.635871 -0.0644993 -1.08295 -1.60076 -1.36661 0.160233 0.658616 0.0140638 -0.477618 -0.0471637 0.0455635 -0.121616 0.907529 0.486557 0.00754561 0.939432 -0.0462828 -0.564568 -0.564441 -0.351956 -0.86717 -0.0711453 0.910994 -0.74097 -0.619536 0.371117 -1.01121 -1.05445 -0.326958 -0.171999 -0.6242 -1.13856 0.309606 0.445126 0.246605 -0.510308 0.248715 0.427359 0.626148 -0.245705 -0.624134 -0.0547807 -0.421492 0.724326 -0.224113 0.863169 -1.04075 0.809911 -0.920666 -0.0473703 0.685275 0.155305 -0.587081 0.43429 0.230836 -1.2128 -1.35681 -0.661745 -0.948176 0.213722 -0.154587 -0.0851091 0.890905 0.0791326 0.493523 -0.56444 0.131016 -0.855831 -0.995178 -0.872738 -0.569262 0.155919 -0.868945 -0.43671 0.639136 -0.20005 0.44833 0.138679 -0.626753 0.635821 0.200429 0.00408625 -0.398811 0.908993 0.704085 -0.876698 -0.622658 0.999676 -0.0841262 0.143229 0.0840594 0.714256 -0.587592 0.110996 -0.896115 -0.463363 0.968261 0.592395 0.637684 0.724174 -0.128731 0.991397 0.609485 -0.148651 -0.212741 0.218319 -0.378655 0.270138 0.766198 -0.137643 -0.675847 0.616187 -0.460618 -0.488173 0.521821 0.455059 -0.263905 -0.573343 -0.162123 -0.986999 -0.900632 0.228797 0.506455 0.182653 0.105686 -0.956847 0.426618 -0.25779 0.236427 -0.0860317 0.950804 -0.0175481 0.409467 -0.282388 -0.439802 -0.871395 0.962459 -0.432979 -0.0114347 0.165024 -0.671987 0.508713 0.710318 0.61626 -0.857601 0.502731 -0.407392 -0.151402 0.389081 0.185278 -0.48442 -0.547105 0.601306 -0.960387 0.780511 -0.727897 -0.991028 0.0995823 -0.883631 0.639922 -0.904184 -0.429629 -0.900507 -0.641643 -0.177544 0.388054 -0.227689 0.11797 0.789751 -0.483802 0.324443 0.580507 0.0219418 -0.986981 0.612838 -0.802041 0.936827 -0.717215 0.418805 0.901791 -0.459151 -0.922849 -0.0458078 0.325595 0.824971 -0.373275 -0.0870937 -0.695093 0.714945 0.035815 -0.52149 -0.00173961 0.915452 0.00886075 0.181813 0.155591 0.743076 -0.868232 0.725576 0.698392 0.00659836 0.42266 0.134442 -0.896135 0.135245 -0.247292 0.294717 0.976196 -0.464156 0.465316 -0.411297 0.272643 -0.29832 -0.922745 0.724428 -0.469531 0.824923 -0.532593 -0.00461267 0.341691 -0.787564 0.454176 -0.588464 -1.06182 -0.74861 -0.185476 0.0904664 0.138588 -0.667139 -0.352506 -0.0633739 0.623098 -0.0463341 0.954391 0.165929 0.306314 0.600757 0.444441 -0.889883 0.389018 0.138376 0.987802 0.762475 -0.649609 1.04459 0.542037 -0.878565 0.125426 -0.270489 0.223627 0.556881 -0.717529 0.17015 -0.234859 0.085998 -0.752235 -0.986999 0.386092 0.316891 0.743405 -0.0929526 -0.845698 -0.692895 -0.483981 0.472518 -0.0212104 0.10166 -0.503729 -0.044754 0.0219191 0.316676 -0.520593 0.27685 -0.399993 -0.726996 -0.926217 -0.0268568 0.785355 0.540142 0.923678 0.703817 0.297836 1.05742 0.444332 0.0225083 -0.0952347 -0.607211 0.403331 -0.671736 -0.511198 -0.581413 -0.510164 -0.441816 -0.337809 0.329402 0.648786 -0.0972193 0.536061 0.287639 0.315261 -0.473358 -1.63448 -1.61247 -0.748671 0.120168 0.0815886 0.420198 0.160482 0.376585 -0.931535 -0.460409 0.327259 0.469763 -0.184002 -0.786364 -0.728844 -0.2101 -0.684411 0.35167 -0.905448 -0.30015 0.174983 0.196872 0.703309 -0.171517 1.17088 0.730011 -0.720271 -0.594344 0.153364 -1.31811 -2.08652 0.25979 -0.546253 1.25921 0.692938 0.562566 0.251182 -1.15998 0.289727 -0.0227413 0.207162 0.175804 0.586026 -0.294831 -0.917673 -0.0835063 -0.102119 0.942257 0.71767 0.889999 -0.265722 0.855203 1.41043 -0.180382 -0.0125955 -0.808551 -1.54572 -1.03096 -1.3732 0.349938 1.44846 1.30598 0.894154 -0.461922 0.448509 0.52502 0.335566 0.162154 1.0188 0.777323 0.336159 0.793928 -0.201195 -0.265289 -0.0751713 -0.506882 -0.0773116 -0.0773925 0.356173 0.163445 -0.0984394 0.183951 0.283817 0.142285 -2.61204 -2.72599 -1.5315 1.41622 1.49938 0.793555 0.730702 1.32224 1.10486 1.10398 0.356511 0.729291 0.0739318 1.04723 1.08227 0.218469 0.683905 -0.0934435 0.696111 -0.938597 0.540593 0.454051 0.398125 1.25116 -0.72984 -0.575312 -1.542 -1.19173 -2.36156 -2.53567 -1.63269 1.16225 2.50987 2.21443 1.01701 0.184162 -0.194076 0.669672 1.26916 0.23613 1.52426 -0.205986 -0.0983255 0.0453503 -0.895817 -0.523513 0.0613685 0.762595 0.491581 -0.114459 -0.997764 -0.319085 -0.388247 -0.932428 -0.193772 -1.31581 -1.56977 -2.68231 -0.380721 2.137 1.19904 1.99814 -0.152776 0.51023 0.108489 -0.63232 -0.63331 0.794177 0.789493 -0.491876 1.04805 0.653664 0.0702451 0.0411613 -0.169995 -0.222694 -0.358406 -0.603187 -0.845706 -0.864118 -1.72397 -1.67615 -1.03012 -2.07838 -1.95821 -0.185578 -0.127749 1.91584 2.00862 1.19467 1.60468 -0.344094 -0.226282 -0.319289 0.42001 -0.345741 0.319836 -0.0620217 -1.14301 0.658639 0.641101 0.329022 -0.611047 -0.0480667 0.744286 0.789827 0.361793 -1.09124 -1.71629 -1.28004 -2.09366 -0.607806 -0.789385 0.454678 1.34758 1.15883 1.97506 1.72718 1.46526 0.401094 0.515246 0.184676 0.114783 -1.11132 -0.391787 -0.973815 -0.799165 0.982668 -0.0314068 -0.232774 -0.402762 0.527836 0.0189712 0.589262 0.490926 -1.31227 -0.270179 -1.30536 -1.34616 -1.20265 -0.293219 -0.0131143 1.17684 0.597661 1.23721 1.23318 1.86884 -0.440193 -0.502722 -0.161081 -0.688116 -0.907995 -0.432507 -0.547182 -1.0768 -1.09935 0.0894939 -0.758173 -0.854781 0.18675 -0.24682 -0.0554793 0.916054 -0.792389 -0.794321 -0.271686 -0.670325 -1.1017 -0.225104 -0.0819768 1.8668 0.826453 1.63149 1.5005 2.12164 0.676774 -0.596153 -0.461008 -0.126696 0.95758 0.186215 0.409378 0.265151 0.0279604 0.67603 -0.44926 0.150307 0.600758 0.394868 0.0755551 -0.858804 0.573513 0.0819291 0.403177 -0.549451 -0.318601 -0.110731 0.898298 1.01383 0.386935 0.46484 2.17206 1.29159 0.626297 -1.76279 0.802014 -0.309369 -0.272381 -0.800464 -1.0179 -0.136152 -0.519249 0.058715 -0.869172 -0.864615 0.672903 0.605533 -0.0430051 0.714511 0.873989 0.812984 -0.63293 0.0105916 -0.126449 0.325591 -0.49644 -0.543107 0.434062 0.979821 2.22692 1.0339 -0.159887 -0.412103 -1.2124 -0.076243 -0.25634 0.340048 -0.620303 0.194418 -0.14516 -0.178694 0.25824 0.0099574 -0.342815 0.625844 -0.194639 0.694048 -0.509176 -0.268803 -0.110111 -0.925588 -0.129208 0.728705 -0.480478 -0.233751 1.25599 1.82033 1.35168 2.15381 0.00274213 0.0113528 -1.20098 -0.852322 -0.692439 -0.762011 -0.265545 -0.177407 0.64056 0.539855 0.776222 -0.404462 0.345012 -0.523611 -0.57974 0.422285 0.00460421 0.176904 -0.83757 0.0156028 -0.905523 1.13055 0.356008 0.909009 0.900987 1.17886 1.50058 0.367331 -0.644955 -0.67045 -0.315556 -0.959483 -0.478981 0.658682 0.226111 0.189371 -0.620966 -0.365615 -0.0990602 -0.407574 0.505051 -0.617948 0.562747 0.779845 0.116656 0.631207 -0.0368092 1.26135 0.486931 1.25287 0.661737 -0.311659 -0.654861 1.64244 2.02965 -0.289744 -2.07168 -0.979697 -0.677387 -0.232309 0.0681374 -0.837386 -0.0996848 0.642538 -0.345149 -0.637638 -0.850279 0.546797 -0.235023 -0.114857 0.266828 0.212749 0.0275273 -0.597607 -0.403627 0.470057 -0.125039 1.49799 1.28664 0.965292 0.266675 1.31521 1.07385 0.0746704 -1.11758 0.374154 -0.56008 -1.67516 -0.552751 0.217258 0.568186 0.0947145 -0.00832863 0.27863 -0.787665 0.507553 0.122166 -0.940654 -0.885101 -0.72749 0.225471 0.0876796 0.443657 1.03131 0.284954 1.17842 0.0956616 0.138996 0.424073 -0.0851141 0.241267 -0.491702 -1.18625 -1.2383 -0.374609 -0.361869 0.0514223 -0.284649 0.135939 -0.906456 0.898134 -0.0119901 -0.122586 0.748406 -0.729728 0.280313 0.586029 -0.359293 0.491659 -0.717326 0.102287 0.584494 0.358436 1.52001 0.219009 0.552119 -0.219703 -0.540118 -1.66406 -0.0968768 -1.32884 -0.232888 -0.0770991 -0.320752 0.0684631 -0.680269 0.229588 0.944675 -0.471164 -1.00149 0.862397 -0.481735 0.930296 -0.0186468 -0.342415 -0.919259 -0.196357 -0.479942 -0.643976 0.726938 1.52978 -0.101007 1.24683 -1.01656 -0.174337 -0.370859 0.201623 0.692519 0.247435 -0.813636 -0.922362 0.0711576 -0.886833 0.101217 -1.08952 -0.389594 -0.620797 0.470704 -0.176137 -0.882626 -0.627552 0.838618 0.827309 -0.541568 -0.500484 -0.683998 -0.655684 0.961681 0.300127 0.679248 -0.0888768 0.223675 -0.490537 -0.316159 -0.453872 -0.923065 -0.347387 -1.26517 0.0943731 0.0617317 -0.327174 0.438284 -0.164872 0.737566 -0.31592 -0.946274 -0.182719 0.180029 0.317911 -0.182836 -0.19779 0.733634 -0.72508 0.65604 -0.569173 -0.608218 0.0310418 0.357747 0.508366 -0.429004 -0.59691 0.299734 0.818755 -0.582599 -0.42493 -0.406629 -0.901105 -0.790802 0.206787 -0.736018 0.845944 0.508139 0.975603 -0.0887783 0.0619221 0.102206 -0.594409 -0.481674 -0.776421 0.640614 -0.197793 0.0475743 -0.782574 -0.301894 0.146799 0.505542 -0.857575 0.591282 -0.357072 0.9681 -0.914049 -0.566383 -0.409926 0.596187 -0.317648 -0.511197 -1.07306 -0.328984 -0.237106 0.806132 0.752129 0.31486 0.693472 -0.448775 0.414228 0.265481 0.143651 0.954527 -0.0376903 -0.711112 -0.753655 -0.399945 0.746757 -0.973998 -0.998169 -0.281716 -0.61803 0.716788 -0.558886 0.963805 0.66332 -0.301248 0.380596 -0.600513 0.863338 0.768487 -0.412275 0.251442 -0.280679 -0.530992 -0.831111 -0.00552386 0.424787 -0.634571 -0.00747705 0.333232 -0.0628376 0.371197 0.959532 -0.360763 0.909663 0.182958 0.93685 0.472124 -0.344952 -0.0584262 0.0781042 0.132076 0.894889 -0.0676152 0.892841 -0.66364 -0.732381 0.996931 0.291888 0.747275 -0.0373241 0.823176 -0.978149 0.185827 0.112278 0.983215 0.703726 0.689866 -0.154212 0.362163 -0.121136 0.0771415 0.455819 0.18962 -0.64519 0.345668 0.441915 0.399433 0.308416 -1.00849 0.161287 -0.791474 -0.280654 0.802332 -0.695326 -0.880141 -0.87061 -0.668765 -0.908758 0.397266 0.652028 0.545946 0.354228 -0.932493 -0.312549 -0.97743 0.0047898 -0.620122 -0.530896 0.164103 -0.0040852 -0.388306 0.814851 1.21807 0.505867 0.86719 0.0039489 0.507134 -0.552221 0.675017 1.32344 -0.946068 0.536514 0.872751 0.890897 0.337017 -0.414581 -0.469072 0.837947 -0.624805 -0.657582 0.765007 -0.660709 -0.360663 0.0109755 0.149537 0.344287 -0.669452 1.08072 -0.58861 0.864669 -0.0929524 0.255412 1.15659 -1.15302 -1.01764 -0.297389 1.29315 0.433035 -0.887755 0.287433 0.543113 0.495555 -0.31481 -0.504371 -0.496358 0.672691 -0.161487 -0.613697 0.759026 -0.226587 0.719026 0.835216 0.315373 0.392692 0.988061 0.104552 1.42263 1.38064 0.907242 0.364153 0.497762 -0.17167 -0.770205 0.176511 1.3302 0.951114 0.206064 0.195201 0.169142 0.21316 0.397744 -0.334496 0.387584 0.520233 -0.358585 -0.404218 -0.0267037 0.419489 0.0689972 0.891079 0.402269 0.588753 -0.165662 0.957661 1.20057 0.0434772 0.694001 0.540796 1.08777 1.06415 2.87704 1.1426 2.10534 1.41458 1.06901 0.275609 1.0059 0.448896 -0.424346 0.0104694 -0.232753 -0.0615599 0.386016 -0.371617 -0.929679 -0.591583 0.378577 -0.70872 -0.466196 -0.703234 0.051071 -0.309499 -0.466785 -0.667115 0.0634983 0.424488 0.633114 1.13276 2.8892 1.57908 1.0993 1.26007 -0.393006 -0.863749 0.6067 0.96443 -0.259512 0.916128 -0.43513 0.83825 0.475241 0.689494 0.207245 -0.105169 0.0129809 -0.813476 0.117399 0.57725 -0.105874 0.0334393 -0.155142 -1.8701 -2.37383 -0.099697 -0.524422 -0.333498 -0.164506 0.0454214 -0.894461 -0.0909363 -0.210397 0.25609 -1.08454 -0.812577 0.662399 -0.062207 0.345625 0.0512087 0.549043 -0.993848 -0.551513 0.655986 0.595375 0.11343 -1.39744 -0.989121 -0.210733 -0.420929 0.155056 -0.976089 -1.36474 -0.805317 -1.65001 -2.63064 -1.51267 -0.855677 -0.246736 -0.146124 0.181124 0.624593 -1.08867 -0.358016 0.75029 -0.684505 -0.0642066 -0.527083 -0.66695 -0.168408 -0.720516 0.37673 -0.382484 -0.119247 -0.337782 0.0459519 -1.01036 -0.81747 -0.170266 -1.62608 -0.593962 -1.52337 -3.31323 -1.73393 -2.91878 -2.1564 -0.949534 0.0924457 -0.909496 -0.0873956 -0.255412 0.26574 -0.978442 0.481512 -0.537011 -0.173913 -0.941453 -0.596149 -0.31289 -0.0897429 0.461169 -0.950797 -0.565689 -0.670946 -0.699529 0.394522 -0.237611 -0.0168191 -0.534936 -1.88401 -2.22099 -0.656274 -2.33922 -1.14774 -0.0830003 -0.0192536 0.537093 -0.589676 0.318676 0.784782 0.883599 -0.472796 -0.694649 -0.872305 -0.107408 0.811245 -0.698605 0.758335 -1.18828 -0.20555 -0.698496 -0.756019 0.778226 -0.522419 0.425387 1.89951 0.804794 -0.53902 0.831111 -0.62703 -1.13261 0.0653924 0.572107 0.645038 0.650487 0.16356 0.538097 0.00365638 1.12947 -0.0712937 -0.290104 0.0190618 0.965033 -0.928587 0.783184 0.875821 -0.972503 -0.615527 0.640372 -0.0371559 0.747614 0.233078 0.0692814 1.50217 1.59486 1.38024 0.981263 -0.443447 0.178133 0.62142 0.0509822 0.367596 0.23934 -0.509122 -0.325277 -0.895808 -0.118202 -0.920523 0.680849 -1.12714 -0.509878 -0.394391 0.245516 -0.279853 0.0150436 -0.277302 -0.583013 0.941153 -0.0821255 -0.0453353 -0.365863 1.4933 1.18611 0.686295 0.791352 -1.29642 0.0537446 0.541844 0.794176 0.403971 1.19308 0.588699 -0.664784 0.319135 0.378898 0.00922057 0.655253 0.665814 0.813519 -0.735806 0.903684 -0.667512 -0.488018 0.725577 -0.515159 0.124678 0.123452 0.421775 1.1491 1.53401 0.32412 0.664041 -0.343336 -1.27182 -0.207137 1.15816 0.772583 0.329738 0.667031 -0.954199 0.790517 0.492602 0.541195 -0.0698989 0.242859 -0.391262 -0.0471011 0.111037 0.476094 -0.179854 0.513558 -0.581574 0.416896 0.0407119 -0.666352 0.0241968 1.32499 -0.098656 0.62584 -0.522156 -0.490809 -1.17806 -0.181126 1.14087 0.486884 1.5604 1.31224 -1.02991 -0.789375 0.122214 0.281416 -0.879779 0.112953 -0.6911 0.797437 -0.850276 0.747307 0.368375 0.193514 0.703133 0.405362 0.930231 0.931086 1.22769 1.13665 0.166131 -0.760326 0.854778 -0.737904 -2.2415 -0.955998 1.58655 0.388025 0.854325 0.165865 0.690612 -0.231613 1.18241 -0.856611 -0.158582 0.176285 -0.269792 -0.495434 0.176101 0.778724 -0.461312 0.984935 0.643259 -0.439368 1.09886 0.180083 1.26763 0.544078 0.741767 0.788138 -1.04153 0.538912 -0.306475 0.0965591 0.411459 1.05493 0.906819 0.568926 -0.110649 0.312859 1.36568 -0.652378 -0.313719 -0.891992 -0.135476 0.56785 0.951232 0.109152 -0.808091 1.0149 -0.106839 0.413251 1.31193 0.257864 1.37149 0.417517 -0.683251 -0.530424 -0.737481 -0.850793 0.209422 0.361859 0.290875 1.06899 1.61274 -0.584022 0.846155 0.272104 0.484754 -0.290416 0.929662 -0.118647 0.606643 0.0336352 -0.126377 -0.464392 0.165638 -0.276452 0.16656 0.789617 0.733137 1.12131 -0.106894 1.08405 0.720357 0.144409 0.586729 0.144273 -0.26681 0.193153 -0.19293 -0.376647 0.578595 0.637029 0.429405 1.4617 -0.43137 0.228507 -0.296417 -0.345822 0.893981 0.0851135 -0.652884 -0.312662 -0.163519 1.25666 0.73808 0.46359 1.52919 0.596184 1.28512 -0.653576 0.271094 0.522436 0.0980129 1.4698 0.324493 0.339281 0.331801 0.665034 0.103204 -0.838975 1.762 0.728756 0.537569 0.0775673 -0.128347 0.838858 -0.594617 -0.334758 0.0246263 -0.884335 0.00745251 0.63707 -0.12287 -0.00643603 0.454983 -0.434448 0.455099 0.36235 0.0110975 0.798352 0.810497 0.47178 -0.119312 0.26692 0.390174 -0.175293 0.698239 -0.0200374 0.819961 1.36888 1.06829 -0.428359 -0.210438 -0.811206 0.683353 -0.390484 -0.880184 0.0732139 -0.714616 -0.713462 -0.312116 0.0527702 -1.06496 0.293492 -0.191078 0.0166477 -0.0949502 0.176235 0.064023 1.61238 -0.0398953 0.61974 0.394855 -0.03196 0.382212 -0.178059 0.293286 1.08509 -0.935012 0.453583 -0.587061 0.640804 -0.657819 0.356548 0.972289 -0.424421 -0.429152 -0.033215 -0.0406612 0.114735 0.606852 0.29983 0.205405 0.0484896 0.331181 0.442187 0.805134 0.735683 -0.1112 0.672382 -0.273341 0.721099 -0.306242 -0.81211 0.703213 -0.165455 -0.0657025 1.07412 0.0641409 -0.515279 0.908595 -0.798273 -0.946165 0.131687 -0.483608 0.972331 0.400582 -0.872217 0.85984 -0.729234 -0.132518 -0.621717 -1.26797 -1.1705 0.626972 -0.245521 0.930521 0.862498 0.277976 0.676487 -0.928698 -0.516434 -0.109557 0.179051 -0.362921 -0.21136 -0.147427 0.869137 0.426313 -0.997742 -0.395428 -0.413007 0.930967 0.0523586 -0.738947 -0.377605 0.759552 -0.294635 -0.0863462 -0.75674 0.382408 -0.272638 -0.750797 0.184981 -0.152181 -1.11951 -0.417151 0.56372 0.217734 -0.130568 -0.510251 -0.119339 -0.612667 0.211729 0.809931 0.117405 -0.857173 -0.723502 0.0843227 0.518235 0.194189 0.58385 -0.889218 -0.401872 -0.537018 0.209826 0.451542 -0.448626 -0.765137 -0.489932 0.900305 -0.271982 -0.696482 -0.0421252 -0.219314 -1.06607 -0.871276 0.450878 0.813031 0.760469 0.843155 0.877089 0.672719 -0.886105 -0.808161 -0.36491 0.628468 0.615589 0.943297 0.521714 0.815851 -0.296243 0.153722 -0.812067 0.756279 -0.431074 0.987243 0.935911 0.161789 -0.779364 0.979296 0.469171 -0.0070498 -0.436995 -0.94348 -0.91937 -0.854732 0.586474 0.220313 -0.140049 -0.922056 0.73101 -0.302713 0.482345 -0.304605 0.491256 0.379803 0.142979 0.796075 -0.679554 0.361905 0.198805 0.403153 -0.0844838 0.396238 -0.921094 0.258576 0.825973 0.00129678 -0.994114 -0.0602636 -0.183683 0.321122 -0.80386 -0.521669 0.37488 -0.0354825 0.870663 0.646901 0.248817 0.388043 0.923704 0.0926237 0.350871 -0.997375 -0.397786 0.633841 0.562877 0.139337 0.816436 0.449804 -0.778931 0.497475 0.624185 -0.410918 0.689517 -0.174435 -0.91663 0.700736 -0.211834 -1.10356 -1.03286 -0.102616 0.816811 0.890098 -0.797262 -0.637224 0.97235 0.49675 0.818598 0.568957 -0.0336619 0.441023 0.179282 0.968352 0.935392 -0.560928 0.8471 0.0164534 -0.0891055 0.431691 -0.759462 -0.188196 0.347095 -1.22189 0.290814 -0.424964 0.0825875 -1.66582 -0.939166 -0.587785 -1.04087 0.76406 -0.0695791 -0.651669 0.503807 -0.367185 0.914792 -0.83874 -0.613941 -0.928171 0.174969 -0.380727 -0.0948503 0.0191631 0.777136 0.184959 -1.13792 -0.615342 0.14752 -1.45482 -0.230228 -1.18686 -0.666672 0.551524 -0.373621 -0.68717 -0.394663 -0.0284695 0.00537863 -0.608444 -0.84728 0.587231 -0.801652 0.302867 0.00301849 -0.517563 0.82165 0.11111 -0.61007 -0.187078 0.788442 -0.175549 -0.228161 -0.892118 0.567971 -0.568426 -1.50253 -0.039072 0.528914 0.428088 0.331449 0.330048 0.756169 0.653844 -0.48148 -0.893647 -0.69956 -0.257757 -0.760716 -0.295981 -0.892426 0.832942 -0.974144 0.13773 -0.852496 -0.113417 -0.850713 0.0916689 0.147655 -1.13183 0.167812 -0.0616147 -0.199899 -0.775925 -1.35538 -1.04815 -0.311981 0.398797 0.0306801 -0.141823 -0.172528 1.59334 -0.0424968 0.0481716 0.568066 1.17833 0.307965 -0.449539 0.838103 0.27061 -0.90703 0.458116 -0.549946 0.827888 -0.280819 -0.274812 0.618917 0.344131 -0.929593 -0.450953 -0.985672 0.46167 0.555246 1.51813 0.447371 0.59963 0.00255367 0.321615 0.158245 1.69289 0.0390136 0.227045 -0.227898 0.00823515 0.43351 0.0763341 -0.369218 -0.0773953 -0.725461 0.740473 -0.900545 -0.620658 0.157594 0.18045 0.0718021 -0.166371 0.577406 -0.0261771 0.185941 -0.301171 0.582455 0.292356 -1.0792 -0.0407438 -0.649954 -0.286297 0.527556 1.6234 0.17977 0.933406 0.0597014 1.81527 1.67198 0.737369 0.170796 -0.583061 -0.695123 0.160743 0.627707 0.471738 0.535903 1.3187 0.56465 0.857241 -0.263188 -0.0771821 0.465628 -0.367312 0.515894 0.466525 0.633223 0.640086 1.40263 1.81269 2.59981 2.43035 0.713921 -0.0547002 0.128944 0.221153 1.21458 0.410089 -0.24586 0.0291891 0.822283 0.611745 -0.895894 -0.65767 0.998633 0.590884 1.04999 -0.304141 0.484976 0.395997 -1.00818 -0.24969 -0.253392 0.604211 0.508301 1.03861 1.02152 2.52539 1.97286 2.27868 1.42603 1.76728 0.0115796 0.691667 0.612512 0.0103203 0.85239 0.694981 0.294081 -0.453339 0.330151 -0.525886 -0.689342 0.201195 -0.575775 1.10255 0.122153 0.831802 0.542108 0.0974428 0.171964 1.68846 1.81737 0.729052 0.705918 1.01871 2.5031 1.96871 0.79619 0.442458 0.785554 0.725279 -0.826811 -0.279341 0.259449 0.85752 -0.362007 0.121191 -0.843229 0.615477 0.963639 -0.790259 0.0950946 0.715632 1.50268 0.870591 0.542764 0.655784 1.31415 0.7501 0.0238974 -1.67982 -1.76486 -0.937 1.46695 0.193824 0.346747 0.226585 0.360473 -0.755019 -0.286151 0.255923 -0.0109105 -0.454501 -0.74493 -0.238807 0.379624 -0.813181 0.102998 -0.161914 0.181033 -0.331517 0.237717 0.448615 -0.404272 1.43228 -0.772719 -1.27727 -2.90253 -4.78077 -4.49336 -0.712156 -1.26173 -0.340352 -1.8407 -0.329471 -0.372328 0.116778 -1.21697 -1.11577 0.665975 -0.484507 -0.45886 -0.64098 0.222524 -0.369415 -0.0781821 -0.692165 -0.372018 -0.865874 -0.571237 0.111957 -0.549331 -0.653103 -2.32124 -1.78275 -2.09101 -2.86556 -3.1474 -1.96797 -1.39259 -2.30375 -1.1333 -0.750248 0.401644 1.1385 0.586193 -0.296527 -0.85791 -0.368181 -0.227795 0.288858 -0.227849 0.0384605 0.708458 0.583517 -0.634975 -1.03439 -0.585444 -0.185884 -0.941907 -0.801076 -2.85561 -2.01013 -3.45784 -3.44565 -1.31138 -1.97305 -0.799582 -0.86289 -0.535115 0.238719 -0.153795 -0.661031 0.615598 0.571089 0.692278 0.464138 0.416147 -0.575426 0.741945 -0.780622 -0.888501 0.449314 -1.08376 -0.971141 -1.27823 -0.870415 -1.10387 -1.20459 -1.96232 -4.04073 -2.96159 -1.80253 -2.02097 -0.907628 -0.635029 0.193882 0.322367 -0.651079 -0.189822 -0.11962 0.994916 0.376816 -0.645563 0.530989 -0.417942 -0.650075 -0.38753 -0.0539198 -0.990658 0.202511 0.881476 -0.00559754 -1.68591 -0.383623 -1.24795 0.158946 -0.47929 -2.34333 -2.94233 -2.51988 -0.270076 0.45081 0.840115 0.708719 0.436887 -1.02934 -1.27962 -0.155399 -0.734546 -0.00639032 -0.305719 -0.753494 -0.233318 -0.0532544 -0.384254 0.887935 0.0732099 -0.308995 0.227726 -0.469779 0.538534 -0.395148 0.659998 0.683536 0.940384 0.10894 -1.01472 -0.333586 0.397531 0.811706 -0.353015 1.18039 0.167713 -0.568171 0.14365 -0.151937 -0.191718 0.440798 -0.736425 -0.381936 -0.309189 0.550157 -0.953701 -0.488223 0.602987 0.174055 0.575388 0.17869 0.901074 -0.00863971 0.853088 1.3905 0.968338 1.83326 0.0827701 0.471394 -0.198234 -1.07862 -1.09046 -1.01933 -0.767846 -1.08639 -0.78402 -0.325472 -0.692135 0.034475 0.277729 0.363034 -0.636353 0.857356 -0.823481 -0.442174 -1.21226 -0.888672 -0.974891 -0.414353 1.56778 0.777021 0.362747 1.57804 1.08186 1.12164 1.71233 -0.46118 -0.54603 -1.05366 -0.47922 0.072817 -1.347 -0.547612 -1.63064 -0.517371 -0.215135 -1.01638 -0.348237 0.143431 0.831663 -0.221717 0.522165 0.426932 0.328012 0.0115923 0.296047 -0.286034 0.991563 0.967702 0.547919 0.279165 1.51412 0.682261 -0.18759 0.59273 -0.580692 -0.0984845 -0.84616 -0.483439 -0.163468 -1.29931 -0.741344 -1.00507 -0.290774 -0.671161 -0.272388 0.0296587 -0.68688 0.414594 0.835566 -0.579715 -0.177654 0.281424 0.310607 0.817746 0.0865593 1.05661 1.23353 0.423941 -0.0581028 0.99773 1.39407 0.0486287 0.887 0.322579 1.15642 1.08182 0.702123 -0.479251 0.183978 -0.267768 -0.213711 -0.681013 -0.124188 0.0842699 0.906186 0.355388 0.631153 -0.149663 -0.862078 -0.96559 -0.209167 0.250978 1.06743 -0.0819738 0.0241719 0.458919 1.26055 1.78837 1.16461 0.713791 0.480686 -0.336881 0.991637 0.460555 0.452074 1.04024 -0.0625845 0.751839 0.653824 -0.0868807 0.308427 0.235862 -0.733757 -0.523362 0.752373 0.764391 -0.522028 -0.75748 -0.153862 0.809138 -0.287559 -0.424325 -1.08118 -1.04588 -1.37761 -1.27176 -1.1903 -0.775378 0.956614 0.0760367 0.745036 -0.00621978 0.8601 -1.03699 -0.489376 0.487292 0.107863 0.7727 0.610399 0.313334 0.024018 0.4326 -0.400678 0.877102 -0.129024 0.358514 -0.182154 -0.234589 -0.0472882 -0.645611 -0.0483125 -0.0277577 -0.595792 0.536 0.251212 0.888586 0.0308253 -0.565897 -0.264571 0.909264 0.317226 -0.42824 -0.0621821 -0.900591 -0.933231 0.717989 -0.393231 0.295816 0.911862 0.0249946 -0.230628 0.381695 0.718766 -0.950818 -0.736862 -1.05306 -0.519791 -0.841729 -0.983705 -0.14222 -0.00736341 -0.90733 0.162711 0.597877 0.565919 1.03334 0.331201 0.327014 0.181679 -0.0432822 0.020425 -0.523362 0.800675 0.784595 -0.0648518 0.292398 0.535142 0.639882 0.497909 -0.60564 -0.668752 0.52733 0.261945 -0.938812 -0.260495 0.223701 0.98272 -0.189179 0.158222 0.759973 -0.383082 0.521288 0.68161 0.654722 -0.88272 0.48546 0.909791 0.682368 -0.596664 0.968548 -0.31864 -0.263039 -0.189001 -0.991272 -0.274514 -0.0624104 -0.661916 0.653859 0.270974 -0.62212 -0.771661 0.0257882 3.05176e-05 -0.261513 0.256996 0.346538 -0.39732 0.88208 0.0548765 0.113084 0.460616 -0.958739 -0.259316 -0.616932 -0.962218 -0.0831019 -0.0165715 -0.0278634 -0.458602 0.92584 -0.598621 0.372478 0.413678 -0.015595 -0.48381 -0.792718 -0.780938 -0.904843 -0.768141 0.0613778 -0.459671 0.0890669 0.890422 -0.704504 0.0716351 0.72757 -0.734587 0.316841 0.664422 0.561175 0.575633 0.876447 -0.312322 -0.784119 0.311649 -0.335043 0.817635 -0.636708 0.25071 -0.993164 -0.0407422 0.0129093 0.39964 0.755669 0.661428 0.455358 0.244559 -0.701887 0.412497 -0.23967 -0.0986946 0.398168 -0.70013 0.666962 -0.841683 -0.459048 -0.357629 0.0594724 0.133038 -0.978643 1.01248 -0.658078 0.746109 -0.312305 -0.917989 -0.543778 -0.735092 0.239357 -0.12479 -0.00100714 -0.483261 -0.649503 -0.433768 0.257856 -0.179465 0.348576 0.73539 -0.134771 -0.167975 -0.385974 1.15974 0.849105 0.509265 -1.39478 -0.97547 0.281112 -0.681993 -0.307449 -0.576614 -0.568324 0.431487 0.669394 0.5245 -0.199633 -0.765321 -0.681086 0.884152 -0.757256 -0.435896 0.114058 -0.0696059 -0.730604 -0.34313 -0.204625 0.540468 -0.475828 0.670652 -0.580613 -0.744382 -0.296388 0.0979677 -0.15019 -1.20546 0.322651 0.516191 -0.530946 0.811515 -0.347181 -0.531544 -0.308101 0.467674 -0.935058 0.516861 -0.376798 -0.755904 -0.859493 0.839961 -0.340938 0.20014 0.0993273 -0.276979 0.231205 0.343014 -0.566192 -0.819852 0.123889 -0.17579 -0.539439 0.430469 -0.0820974 0.594351 -0.338237 -0.67843 -0.308054 -0.494559 -0.631163 -0.602218 -0.651414 -1.25941 0.173094 0.76478 0.246726 0.281966 0.3361 0.540696 -0.0334853 0.316622 -1.15108 0.344561 -0.479146 0.664867 -1.04883 0.432917 0.102699 0.560827 -0.422617 0.0327188 -0.285726 -0.0668475 0.83984 -0.267052 -0.131489 0.638838 -0.8139 0.11394 -0.123776 -0.555641 -0.795836 -0.655268 -0.787778 0.0713032 -0.561505 -0.640005 0.637518 -0.765536 -0.730133 0.158348 0.398677 -0.276298 0.361495 1.02167 1.14662 -0.104439 0.504987 -0.460575 -0.203966 -0.0686886 -0.0588358 0.0132676 -0.419815 0.423861 0.403693 0.50343 0.191688 -1.12364 -0.290466 -0.179229 0.415615 -0.810663 -0.505635 0.831146 -0.121648 -0.736964 0.778459 -0.194736 0.310138 -0.1813 0.0846012 0.412797 0.780949 0.291912 -0.755958 0.817912 0.860246 0.182315 0.417876 0.60093 -0.0291694 0.91578 0.180084 0.636271 0.017727 -0.560842 -0.832278 -0.732969 0.0673482 -0.504319 -0.607163 -0.217882 -0.4571 -0.952298 0.00495114 -0.539151 -0.184806 0.842069 0.436839 1.21108 1.43835 1.20708 -0.258369 0.194335 1.37308 1.38628 -0.129687 0.808644 0.0359795 0.293582 0.120665 -1.20739 -0.518813 -1.49424 -1.02612 0.655937 0.0563324 -0.134295 0.424909 -0.411684 -1.01822 -1.02359 0.543168 -1.13216 0.488222 0.914772 0.92661 0.367 -0.0476063 0.150467 -0.834578 -0.196901 1.47194 0.325557 0.78095 -0.0598585 -0.416113 0.315947 -1.30703 -0.663292 -1.47033 -1.81836 -0.911609 0.586828 0.722143 -0.180874 -0.87651 0.212063 0.58559 0.499139 -0.761719 0.100562 -0.691817 -0.931564 -0.347024 -0.752512 -0.299219 -1.69392 -3.24883 -1.39405 -9.36893e-05 -0.0654466 -0.17035 0.498259 -0.55525 -0.316224 -1.21194 -0.0254298 -0.620813 -0.754699 -1.51023 0.552767 0.800718 -0.89002 0.634463 0.937117 -0.620396 -0.809352 -0.977583 -0.728371 -0.996071 -2.16093 -1.76987 -3.42095 -3.78261 -3.22932 -3.26952 -3.96307 -0.801502 -1.59075 -0.125817 -0.309906 0.0170054 -0.652115 -1.4833 -1.8209 -0.902101 -1.09498 0.644297 -0.578061 -0.371184 -0.357161 -0.231849 -0.0549073 -0.0665648 0.604794 -0.955913 -2.31328 -2.85409 -1.62282 -2.80457 -2.6965 -2.97171 -2.75987 -2.55914 -2.0049 -1.25606 -0.800967 -0.317296 -1.26663 -0.0910932 -1.11067 -1.35484 -0.0204251 -0.878671 0.627663 1.04243 -0.12146 -0.362761 0.687882 -0.0675985 0.233487 0.356008 -0.447094 -1.45172 -1.25519 -1.61959 -2.17946 -2.50393 -0.708145 -2.46807 -0.468816 -0.371791 -0.657979 -0.524292 -0.728002 -0.579283 -1.42453 0.00620957 0.3671 0.495194 0.92103 0.186694 0.731868 -0.21923 1.03455 -0.34575 -0.581172 -0.869503 0.472241 -0.164134 0.337478 0.16378 -0.971414 -1.83418 -1.20658 -1.10266 -0.00565184 -1.3336 -0.358583 -0.504359 0.750805 0.538534 0.0336566 -0.824258 -1.104 -0.302905 -0.0942324 -0.490748 -0.49551 -0.178473 -0.617475 1.37558 1.13626 -0.419424 -0.962979 -0.785516 -0.0488791 -0.653299 -1.05364 -0.938778 -1.00137 -0.6484 -0.508962 -0.304432 -0.409849 0.276405 1.63154 0.664231 1.28187 1.00753 0.630766 0.49173 -0.243767 -0.546713 -0.967353 0.10814 0.265654 -0.151565 -0.168766 -0.0940794 1.22438 -0.206442 -0.598934 -0.421064 0.08248 0.45218 0.123429 -0.722908 0.566526 0.165701 0.140119 0.317491 1.00829 1.2504 0.627531 0.349324 0.180266 0.919008 -0.0591337 -0.407656 -1.39823 -0.969778 -0.32251 -0.780362 -0.451963 -0.701492 -0.411543 0.970347 1.51726 0.382161 0.332641 -0.515854 0.402991 -0.415269 0.611123 0.989355 -0.612191 -0.58812 1.20816 1.18669 1.45456 1.44199 0.392118 0.663403 2.15802 0.602295 0.0192189 0.18191 -0.844811 -1.63212 -0.52923 -2.06544 -0.621061 -0.451229 0.697843 0.562888 0.0597836 0.948649 0.0159269 0.195288 0.821527 0.842942 0.855031 0.0297006 0.880954 -0.228168 0.356957 0.332717 0.113143 1.79647 0.684048 1.35782 1.01068 1.91095 1.4245 0.0637118 -0.138522 -0.506849 -1.04768 0.244666 0.122414 0.410029 0.536556 0.419997 1.30296 -0.526618 0.712059 -0.874203 -0.0444422 0.918462 0.697079 -0.37877 -0.273146 0.366346 0.846224 -0.0889998 0.765752 0.11434 0.119611 0.107542 1.30405 0.259875 -0.429573 -0.120645 -0.436313 -0.529441 -0.458172 0.361547 0.388234 1.20688 1.87364 1.15097 0.701162 -0.936922 -0.564135 -0.827509 -0.141699 0.474147 0.764704 0.979896 -0.470545 0.333057 0.769627 -0.627306 0.0710673 0.128571 0.668812 -0.568851 -0.41535 0.249442 0.188012 -0.579389 0.0209961 0.243662 0.705779 -0.690182 -0.574944 -0.0834045 0.684442 -0.245774 1.1738 -0.960266 -0.24015 -0.571459 0.621876 -0.0477704 -0.00908498 -0.602495 1.4953 0.984914 -0.110987 0.48918 -0.813902 0.404754 0.967976 -0.626521 0.140827 -0.0999114 0.592997 0.129582 -0.448297 0.281278 -0.206353 0.352514 -0.196381 1.09594 0.302187 -0.687942 0.0851194 -0.486715 -0.503281 0.463973 -0.694876 0.892511 0.449962 0.367485 -0.388196 0.695146 0.203337 -0.406987 0.150258 0.214429 -0.0232585 0.00659169 0.51068 -0.626894 0.783559 -0.0990186 -0.536351 -0.169569 0.271904 0.601492 0.199445 -0.0454544 0.0658923 0.483973 -0.717057 -0.27272 -0.703726 0.359355 0.576586 -0.293972 -0.107618 0.277066 0.759461 0.614081 0.355254 -1.19785 -0.117627 0.00310659 -0.867519 -0.365014 -0.433423 0.547015 -0.73359 -1.11185 0.145445 -1.09134 -0.412168 -1.23129 0.567202 0.11697 0.145536 -0.476345 0.81575 0.606743 -0.785821 0.681326 -0.463851 0.596378 -0.638475 -0.196031 -0.371878 0.918529 0.208079 -0.365242 -0.748929 0.473567 0.784927 -0.194686 0.0876096 -0.136648 0.754442 0.0341378 -0.823062 -0.283692 -0.671771 -1.2799 -0.943081 0.196498 0.0445182 -1.03094 0.916266 -0.911704 -0.739677 0.586657 0.153844 0.348064 -0.525088 0.791343 0.432144 -0.818543 0.322312 -0.307455 -0.396594 0.819688 -0.395518 0.0282112 0.512688 -0.398019 0.785315 -0.716323 0.0587278 -1.11137 0.661545 -0.355233 -1.00678 0.932579 0.91534 0.491134 -0.597888 0.960082 0.842036 0.243019 -0.242347 0.485702 0.211097 -0.84938 -0.327288 0.866511 0.985838 0.902081 -0.112981 -0.166087 0.85394 -0.477823 0.453306 -0.497902 -0.0385486 -0.636447 0.861577 0.0948721 -0.424929 -0.679399 -0.75001 -0.154966 0.417646 0.230934 -0.639149 -0.157384 -0.960875 -0.246376 -0.990234 -0.89227 0.0179144 0.264504 -0.172826 -0.468368 0.341166 -0.158238 -0.541978 -0.460799 -0.34666 -0.204756 0.243422 0.295684 0.893124 -0.994507 -0.546922 -0.741081 0.887143 0.391766 -0.869015 0.891415 -0.53618 -0.178747 0.617481 -0.654958 0.648854 0.773003 -0.191015 0.931333 0.50499 -0.933226 0.219214 -0.811459 -0.820227 0.974857 -0.0902342 0.368673 -0.270237 -0.984506 -0.703519 0.0612562 -0.780705 0.744224 0.0954065 -0.826946 0.892144 0.955608 0.085857 -0.86448 0.495224 0.270974 0.164403 -0.565722 -0.0628986 -0.998108 0.555712 -0.753838 -0.670827 0.987104 0.182751 -0.573499 0.259721 0.133579 0.345323 -0.492514 -0.391967 0.866943 -0.840312 0.296121 -0.620415 0.567165 0.206461 0.358767 -0.512349 -0.22149 0.481723 0.273702 0.187642 -0.200108 -0.665101 0.544176 -0.964782 0.748833 -0.781732 0.466536 -0.709773 0.502032 0.669961 -0.7448 -0.103324 -1.13376 0.508237 -0.412318 0.0639119 0.298006 0.465187 0.801105 0.644166 0.951835 1.04674 0.139283 1.88948 0.632751 0.757372 -0.43458 -0.909389 0.781883 0.295747 0.164382 0.917966 -0.255165 -0.362483 0.966987 0.563815 0.119401 -0.174167 -0.351548 0.385611 -0.917003 -0.172953 -0.810521 -0.425496 -0.831928 -0.787157 0.402835 -0.339757 -0.286257 -0.0287358 0.272922 0.266972 1.54636 1.35745 1.27879 0.396513 -0.501884 0.840869 -0.422532 -0.0980267 -0.599658 -0.493088 0.886354 0.0350876 0.277317 0.54018 -0.140482 0.643789 -1.06906 -0.127186 0.210285 -0.581043 -0.144462 -0.622432 0.426841 0.0715966 0.493351 0.0622014 -0.220969 0.698614 0.236029 0.377108 -0.0220223 0.0619955 0.551093 0.771754 -0.460748 -0.402484 0.690786 -0.534043 0.630097 0.690353 0.960061 -0.0762115 -0.762366 -0.939144 -0.198562 -1.56885 -1.62272 -0.982089 -2.538 -2.11253 -2.09153 -2.41591 -0.76594 -1.35981 -2.34125 -0.888168 -1.75919 -0.919308 1.49095 1.54558 1.01166 0.0727086 0.185956 -0.750729 0.858511 -0.25507 0.621353 0.752868 -0.675471 0.0134485 0.110177 -0.339351 -1.50034 -1.74184 -1.90947 -2.14938 -2.87358 -3.1124 -2.52378 -2.01845 -3.27532 -2.19287 -3.47125 -3.02803 -1.23846 -0.419845 0.619208 0.254202 -0.357363 0.66137 0.737563 0.47018 -0.883058 -0.168115 0.316661 0.162965 -0.554521 0.046494 0.196728 0.21441 -0.192385 -1.40943 -0.602255 -2.12274 -2.73202 -1.32128 -2.10304 -3.02589 -3.34229 -2.56225 -2.07453 -2.84574 -0.431508 -0.714123 -1.05042 0.157051 -1.18139 -0.0561024 -0.421576 -0.87225 0.551783 -0.605411 0.404635 1.12037 0.576387 0.449896 -0.118802 -0.0498277 -1.54484 -0.949615 -1.87023 -1.05275 -1.43886 -0.526078 -1.05019 -2.06111 -0.530491 -1.20143 -2.05716 -0.639252 -0.744504 -0.654799 -0.237079 -0.307579 0.572429 -0.471604 0.00989578 0.482141 0.392199 0.363241 -0.817047 -0.621551 0.308671 -0.815398 -0.975266 0.756459 -0.770365 -0.895537 0.291222 -1.26287 0.329609 1.20598 0.845921 1.55716 1.55262 -0.0881122 -0.573206 0.92531 -0.800318 -1.1725 -1.53071 -0.399307 -0.173211 0.549857 -0.576097 0.578963 -0.142366 0.161868 0.508458 0.673366 -0.490266 0.827305 -0.0565005 -0.338796 -1.06206 0.325763 -0.663043 0.339803 1.9128 1.56822 0.51275 1.56129 1.39266 -0.991749 -1.12154 -0.781261 -0.878346 -0.685475 0.0927293 -1.0099 0.225286 0.314249 0.687096 -0.406282 -0.248756 -0.469499 -0.246695 -0.514548 -0.233236 0.151528 -0.446475 1.14705 0.16869 0.822507 2.18841 1.43862 3.7012 2.91085 -0.946593 -0.307639 -0.117818 -0.86292 -0.866546 -0.990579 -1.67698 -0.778975 -0.0773781 0.861607 0.478291 1.05475 0.770141 0.200596 0.999442 -0.261142 -0.109466 0.880874 -0.69542 0.175935 2.27248 1.06549 1.9004 1.12916 1.88288 1.41007 2.36065 0.649848 -0.963589 -0.0476595 -0.277251 0.445599 0.367726 -0.454741 0.99717 0.194216 1.32742 0.4172 0.640024 0.884128 -0.322499 0.967681 0.317667 0.288667 0.264113 0.7512 -0.468602 1.03556 2.20807 0.404284 1.76916 2.50575 0.695546 1.84803 0.490855 0.575961 -0.6212 0.531419 -0.101017 0.437009 1.64851 0.38991 -0.0859929 0.885402 0.213088 2.00598 -0.185023 1.01818 -0.296186 -0.361867 0.194284 -0.177406 -0.127907 1.19379 0.638771 0.232962 0.398494 1.22137 1.2817 0.945306 0.559635 -1.28939 0.532305 0.699873 0.662369 0.45306 0.889604 1.05036 1.34022 0.857981 0.696032 1.48016 1.35134 0.754891 0.107868 -0.0603606 -0.112792 0.129547 -0.622947 -0.668384 0.710149 0.93526 -0.873185 0.00154291 0.765997 0.848469 0.209272 -0.242117 -0.0588048 -0.655621 -0.340768 1.5311 2.77748 1.42642 0.958439 0.886402 2.05203 1.15138 0.777363 1.89255 0.281876 1.07635 0.0949696 0.0730566 -0.642851 0.497762 -0.947569 0.359525 0.289922 -0.126255 -0.146376 0.136229 0.598028 -0.84271 -0.0577975 -0.786023 -0.245261 -0.86499 -1.93376 1.09236 2.75125 0.866447 0.215542 0.892239 1.32599 1.04058 0.289915 0.702266 1.22245 -0.0924281 0.654596 0.397454 -0.599988 -0.560218 0.901499 -0.386145 0.0112829 0.855834 -0.675503 0.256889 -0.300117 -0.729403 -0.467488 0.388026 -1.78879 0.127084 1.64094 1.48628 0.266249 2.08551 1.42144 -0.0307855 0.642278 -0.856893 0.412614 -0.314005 -0.162135 -0.00834405 -0.487778 -1.07668 -0.630588 0.502022 0.225318 0.353286 -0.326476 0.489461 -0.84586 -0.544565 0.19843 -1.24481 -0.935515 0.334535 -1.22746 0.73786 0.280824 1.52577 1.50585 0.182588 0.88913 0.189526 -0.947646 -0.0424323 -0.210695 -1.24074 -1.77713 -0.488532 -0.308784 -0.149603 0.468889 -0.160838 0.321573 -0.0874608 0.286333 -0.594346 -0.256712 0.147415 0.2408 -0.386591 -1.10977 -0.214457 0.694156 0.458852 2.21053 0.433032 1.4499 0.64952 1.32962 0.545355 -0.0707643 -0.973374 -1.98985 -1.13523 -0.995278 -0.666456 -0.446066 -0.555171 0.393605 0.660573 -0.695972 0.188633 0.842313 0.468812 -0.139084 -0.123769 -0.791547 -0.679353 -0.0782903 -0.547828 -0.52086 0.795146 0.451075 0.5106 0.326708 0.992748 1.2293 1.65676 0.503285 -1.44747 -0.641791 -0.100533 -1.23256 -0.581988 -0.962723 0.153748 0.218458 -0.135105 -0.44926 -0.165501 0.864408 -0.716066 -0.0804186 -0.0817482 -1.38932 -1.30123 -1.2497 -1.51877 0.181238 -0.573047 0.460847 -0.902402 0.530937 1.64145 0.980848 0.852608 0.287772 -1.57247 0.0315127 -0.123005 -1.21863 -0.679963 0.694445 -0.992951 0.425943 0.227943 0.967956 -0.659047 -0.757421 -1.00725 0.0324669 0.463609 -0.990562 -0.433436 -0.583139 -0.220391 -0.604162 -1.18143 -0.905312 -1.13854 -0.430981 0.200521 -0.352619 -0.125919 -0.416055 0.254269 -1.31679 0.530081 -1.03329 0.286859 0.2642 -0.812037 -0.552833 -0.0786462 0.258766 -0.0547197 -0.770317 0.0221629 -0.332103 -0.235023 -0.106287 -1.08595 -1.81294 -0.985626 0.0792957 0.0266389 -1.44717 -1.08357 0.0919121 -0.41221 -1.15621 -1.11325 -0.763789 -0.798559 -0.864776 -0.81324 -0.959834 0.41685 0.594408 -0.870859 -0.296932 0.265481 -0.617176 -0.993957 0.0414137 -0.272785 -0.247844 0.700306 -1.17023 -0.104835 -0.498273 -0.398507 -1.79929 -0.254474 -1.96506 -1.73522 -2.02588 -0.252509 -1.05053 -1.69008 -1.02186 -1.09476 -2.05836 0.315894 -0.355799 0.909855 -0.338089 -0.444563 0.996582 -0.299905 -0.605213 -0.762871 0.902768 -0.588323 -0.959485 0.0262873 0.25842 -1.19983 -0.559416 0.0512607 -0.763768 -1.06009 -1.81381 -0.589646 -1.49028 -1.13962 -1.10838 -1.56049 -0.24305 -1.04654 -1.15354 -0.0432025 -0.825789 0.59331 0.493322 -0.361919 -0.650807 0.899411 0.849605 0.24247 0.195959 -0.647755 -0.406231 0.458047 -0.0444021 -0.312956 -0.49807 -0.844885 -0.689288 0.648409 0.551507 -0.181319 -0.904855 -0.22925 -0.91734 0.167791 0.77552 0.198322 0.781246 -0.268288 -0.726541 -0.515126 -0.899472 0.737602 -0.666494 0.968749 0.961058 -0.210547 -0.608814 -0.183813 -0.623157 -0.390973 0.907163 -0.183203 -0.68804 -0.753288 -0.0966521 0.385846 -0.92856 -0.904917 0.170751 0.14774 -0.194678 -0.246559 -0.913388 0.733268 0.318705 0.595019 -0.157384 -0.653981 -0.32963 -0.526475 0.894833 -0.338481 0.702567 -0.742058 0.44969 -0.38023 0.915891 0.482284 0.796123 -0.32596 -0.0993104 0.0686917 0.252009 0.0214096 0.0586923 -0.671748 -0.132228 0.700607 0.946036 -0.802913 -0.270705 0.0143714 0.463996 -0.757097 -0.835348 0.915327 0.563951 0.219886 -0.457259 -0.447493 0.0360423 0.702506 0.3867 -0.82147 -0.435255 0.186374 -0.233403 -0.635792 0.224709 0.0910989 0.298009 -0.123541 -0.731255 -0.332182 0.0741649 -0.259422 -0.811067 0.0153419 -1.00052 -0.495381 0.622037 -1.02745 -0.306857 -0.546873 -0.565414 0.61272 -0.420576 -0.893735 0.457869 -0.0349437 -0.314674 0.0166836 0.771433 -0.841749 0.904668 0.752393 -0.7285 -0.235859 -1.09871 -1.16256 -0.648029 -0.870305 -1.99981 -1.46664 0.0574337 -0.633297 -0.696815 -0.0430311 -0.813551 -0.281035 0.952135 -0.337423 0.43082 0.486913 -0.954919 0.577013 -0.951842 -0.72314 0.238521 -0.251758 -0.939713 -1.10052 -1.14162 0.49215 -0.459043 -1.16962 -1.27348 -1.2963 -1.70129 -0.82619 -1.04066 0.00743629 -0.206191 0.110751 0.955576 -0.188823 -0.158379 -0.298292 0.44797 -0.359873 0.563049 -0.205718 0.120638 -0.329773 -0.787957 -0.214942 -0.503794 0.196566 -0.897169 -0.171457 -1.09225 -1.38255 -0.81292 -1.63774 -0.781028 0.600732 0.820942 -0.220491 0.141036 -0.764559 -0.00822472 0.53003 -0.346864 0.311661 1.37042 1.35115 -0.171676 1.13253 0.816898 -0.530188 -0.503201 0.954045 0.299234 -0.557058 0.618618 -0.039986 0.00205713 -0.720409 -0.109683 -0.329049 -0.256582 0.147469 1.59363 -0.204483 -0.029321 0.174877 0.24146 -0.294874 0.521288 -0.0280881 0.742418 -0.117927 0.807974 -0.334096 1.15072 2.07741 0.34913 0.988127 0.681184 -0.146401 -0.709586 0.687449 -0.927317 -0.713379 0.685509 -0.795303 -0.253562 0.996994 0.24418 1.71073 1.96894 0.579592 1.20617 -0.132334 -0.456729 -0.320836 1.01415 -0.502341 -0.315045 -0.244041 0.335672 1.64308 1.55697 2.06071 1.08991 0.330327 0.679199 -0.816631 0.731185 -0.565467 -0.338132 -0.368079 0.108071 0.635444 1.15423 1.22602 2.2446 2.06969 1.92643 0.834189 1.38834 -0.238856 -0.427518 -0.164296 -1.60902 -0.983902 0.608263 0.565051 1.09498 1.30046 0.680894 1.14316 1.12159 1.0161 0.864671 -0.579779 0.145481 -0.427248 0.183151 0.791659 0.31789 0.440301 0.464941 1.78298 1.57608 1.00034 -0.082559 1.95801 0.584313 -0.349266 -1.75337 -1.45785 -0.925512 0.555317 0.345628 0.111582 0.803735 1.54463 1.43236 0.623698 2.44317 0.24321 0.950562 0.172275 0.982053 0.755288 0.631864 -0.0454223 -0.738045 0.0983553 1.22994 1.55765 0.983674 1.77221 1.52342 0.851005 1.35139 0.0676371 -1.09437 -0.285702 -0.422162 0.220569 0.173044 -0.146712 0.612994 -0.336266 -0.106197 0.306876 1.19487 1.23656 0.680254 0.172712 0.505151 -0.329893 0.571878 0.420321 -0.46098 0.598582 1.22801 0.965465 1.89923 1.13597 1.22467 1.24434 0.0208691 0.437722 1.62129 0.792219 -0.139947 0.937313 -0.145645 0.881986 1.38386 0.355264 1.18107 0.482286 -0.140128 -0.0264567 -0.283865 -0.344608 0.594592 0.278868 0.360132 -0.454233 0.543352 1.57481 0.674267 1.14392 0.126244 -0.900592 -0.332097 1.05934 0.118281 0.387042 1.27415 0.507489 -0.801559 0.878543 0.575425 1.68849 1.29308 0.149387 0.0300583 0.286316 -0.204168 1.01858 0.178441 -0.166703 0.772088 -0.507583 -0.239857 -0.549655 1.25451 1.30326 -0.566922 1.31787 0.502848 -0.173595 -0.356982 0.205561 -0.715857 0.160529 -0.281774 0.848944 0.284402 -0.63876 0.785893 0.00953471 0.117159 -0.334614 -1.22798 -0.377685 -1.00166 0.566632 0.482135 -0.26003 -0.395487 -0.238273 0.0361454 -0.757325 -0.529746 0.30257 -0.154538 -0.480355 -0.788795 -1.14357 0.308048 -1.174 -0.0411039 0.134657 1.36265 2.07438 1.02178 0.742416 0.437231 0.599281 -0.181082 -0.726727 -0.201814 -1.87549 -1.62987 0.62728 0.223857 -0.945964 -0.329569 0.84501 0.329085 -0.614037 0.326234 -0.986718 -0.893958 -2.0715 -1.50698 -1.66662 -1.59518 -0.660878 0.125735 1.36418 2.59688 1.47888 1.25679 0.388113 0.33308 -0.851838 -0.886925 -1.95182 -1.46124 -0.437719 -0.398734 0.441074 0.0751374 -0.668471 0.281716 0.48736 -0.474172 0.289666 -0.835487 -0.362853 -0.395637 -1.82546 -1.64951 -1.12187 -2.31559 -0.693227 -0.140123 -0.481023 1.50791 2.15819 -0.606951 -0.333115 1.10524 -0.186657 -1.32835 -1.19435 -1.69579 -1.17813 -1.23445 0.203311 0.156865 -0.193198 -0.853877 0.0927777 0.619833 -0.459805 -1.15209 -0.985665 0.463465 -0.918071 -0.282547 -1.17605 -1.37596 -1.30585 -1.7621 0.379914 0.874892 1.0405 -0.497399 -0.629173 -0.946046 -1.32413 -1.60654 0.056283 -1.45246 -0.186174 -1.00788 -0.039379 -0.359796 0.501531 -0.84032 -0.821628 -0.389725 -0.85944 -0.866 0.585456 0.816508 -0.283858 -0.962005 0.336605 -0.924079 -0.4453 -0.647952 0.676608 0.297074 -0.518781 -0.689749 -1.39191 -0.995957 -0.593752 -0.986653 -2.15378 -1.01427 -0.592109 -0.139325 -0.520606 -0.116731 -0.928565 -0.485884 0.745601 0.706527 -0.481918 -0.176808 -0.161447 0.654089 1.68669 0.582277 -0.990162 -0.696126 -1.90573 -1.20075 0.136701 0.433594 0.120573 -0.9148 -0.41116 -0.145244 -0.202934 -0.777761 -1.19505 -0.0824544 -1.17508 0.395429 -0.81672 0.181369 -0.491833 -0.690542 -0.783318 0.456658 0.646537 0.222896 0.0597433 0.368359 0.822493 0.203857 -0.178351 -0.653566 -1.90332 -1.54318 -0.543133 -1.19724 -0.434859 -0.130108 -0.76708 -0.656157 -0.945524 -0.19793 0.289422 0.770133 -0.782632 0.802207 -0.675806 -1.00228 -0.368317 0.857297 -0.730528 1.02978 0.545501 -0.724883 -0.444601 0.88703 -0.572797 -0.561504 -0.52793 -0.582728 -0.400781 -1.0558 -0.488318 0.195652 -0.0513312 0.108326 -0.584871 0.0855675 -0.248483 0.643552 0.780668 1.36302 -0.350085 0.351604 0.689172 0.546368 -0.711661 0.862973 -0.959532 0.154069 -0.114071 0.824973 -0.558967 0.427892 0.466525 -0.233071 -0.138934 0.00919053 -0.178306 -0.184392 0.437366 0.560765 -0.241877 0.219383 0.226939 0.319336 2.00464 0.376269 1.50775 -0.458681 0.826761 -0.0684527 -0.0960008 -0.302367 0.184912 0.674734 0.128758 -0.769031 -0.19104 0.595905 -0.534216 0.391963 -0.759635 -0.21189 -0.654727 -0.28542 -0.996347 -0.548581 0.09815 -0.812504 0.611336 1.4218 1.29488 1.16218 1.29356 0.253099 0.893797 -0.111059 -0.603531 0.27197 0.264903 -0.533885 -0.708182 -0.213965 -0.162389 -0.030639 -0.880022 0.856819 -0.862402 -0.536393 0.435186 0.791061 0.497078 0.333578 0.91302 0.0696638 0.812613 0.694279 0.188034 -0.208 1.38105 1.05989 1.1093 1.66514 -0.524641 -0.129674 0.168027 0.839168 -0.612545 0.196556 0.784356 -0.219825 0.0927458 -0.476332 0.317126 -0.925628 -0.8988 0.050419 0.576834 -0.197249 1.10294 0.689246 1.75344 1.2896 1.23435 1.21779 0.676596 0.554242 1.43099 0.605518 -0.247468 1.11348 0.852733 -0.616361 -0.376146 -0.66191 -0.277388 0.084183 0.434431 0.902585 0.472823 -0.752861 0.241081 0.992017 -0.492969 0.913276 -0.222274 0.688187 -0.212906 0.0543215 -0.0330003 -0.256772 0.287605 0.350521 0.305031 0.49975 0.726057 0.519287 0.213178 0.489228 0.261193 0.309258 -0.0135607 -0.420569 -0.905332 -0.332804 -0.602283 0.450667 -0.20835 -0.430647 -0.0654622 -0.558092 -0.983444 -0.708305 0.657094 -0.332713 -0.24785 0.0720071 0.201388 0.721301 1.00118 0.210652 -0.958076 0.785014 -0.862344 -0.855044 -0.0911581 0.900362 -0.12645 -0.293518 0.598811 -0.797845 -0.815058 0.312784 -0.667348 -0.832881 -0.332255 -0.905637 0.207923 -0.84875 -0.922422 -0.795831 -0.41673 -0.257363 -0.345134 0.906125 0.711295 0.0519104 0.462602 0.823547 -0.718927 -0.66686 -0.222938 -0.977172 -0.581103 -0.768242 -0.413984 -0.243263 0.707633 0.976928 -0.729057 0.680105 -0.21128 0.824641 0.520859 0.351543 -0.891476 0.0698569 0.550157 0.832087 0.377627 0.959433 -0.29567 -0.801491 -0.762282 0.619991 0.322525 0.734667 -1.07285 -1.07353 -0.429834 -0.157414 -0.678291 -0.0240625 0.0348707 0.883686 0.267495 -0.27842 -0.208289 -0.22898 -0.198218 -0.810785 -0.569628 -0.0315854 0.149394 0.436024 -0.674647 -0.332399 0.0841066 0.628861 -0.493319 0.355741 0.0550988 -0.114675 0.207788 0.875357 -0.346262 0.590838 0.506769 -0.198064 0.057274 0.12292 -0.671333 0.895067 -0.576822 -0.351726 -0.847414 0.267373 0.634449 -0.449324 0.295755 -0.0588963 -0.739771 -0.285557 0.265031 0.367491 -0.0315607 -0.230847 1.05025 0.620266 -0.0289303 0.649648 -0.618937 -0.506093 -0.530695 0.510846 0.921292 0.622277 0.662878 -0.2032 0.59554 0.37929 -0.381491 -0.864172 0.209568 0.8399 -0.402448 -0.993896 -0.265419 -0.310564 -0.606364 0.58453 -0.0467339 0.149995 0.0352507 0.399246 -1.00568 0.627982 -0.403358 -0.972476 -1.08967 0.425264 0.303403 -1.20409 0.261602 0.4249 -0.00302908 0.47416 -0.352266 -0.104421 -0.0978 1.15988 -0.166936 -0.88966 -0.107705 0.685781 -0.843623 -0.418248 0.596078 0.180614 -0.259321 -0.229961 -0.891848 -0.897744 -0.0405231 -0.845522 -0.806358 -0.208936 -0.464595 -0.848066 -0.351564 -1.8035 -1.03822 -1.52487 -1.08156 0.0260777 1.08972 1.42668 1.28035 0.210528 0.3296 0.053091 0.408195 0.106601 0.45005 -0.356913 0.77237 -0.0827029 -0.728806 -0.133891 -0.0195801 -0.752414 0.750116 -1.0339 0.291973 -0.0694275 -0.71336 -0.788373 -0.60219 0.507662 -0.24938 -0.146293 0.353934 -0.207938 0.42003 0.171549 0.860348 0.607413 0.527358 -0.942099 0.425065 0.843684 -0.275619 0.0760582 0.941944 -0.604367 0.482446 0.452492 0.279607 1.19634 0.620037 0.975246 -0.379673 -0.0846959 0.549704 0.439655 -0.0433571 0.790739 0.246256 -0.0242692 0.490736 0.017074 0.749529 -0.472737 0.3046 -0.647229 -0.958928 -0.584859 -0.8993 -0.309659 0.512054 -0.755982 -0.548999 -0.68829 -0.0239243 0.572052 0.618773 0.551322 0.922151 0.86304 0.224125 0.0171619 -0.858459 -0.572563 0.349395 -0.117757 -0.355265 1.29818 -0.576952 -0.255079 -1.696 -0.628687 0.323383 -1.21897 -0.546569 0.601868 0.82938 0.593614 0.99499 0.163647 0.151019 0.938518 0.513702 -0.0811729 1.79203 0.230438 1.25558 -0.938064 0.898396 -0.0120716 -0.562291 0.163608 -0.24375 -1.75287 -1.05793 -0.690666 -0.034733 -0.868587 -1.33252 -0.0792952 -0.396408 0.139306 0.25801 0.78955 0.188919 -0.739373 0.398497 0.59237 0.382123 -0.523216 1.20341 1.60471 1.48449 0.316911 0.801711 0.624607 -0.242451 -0.670288 -0.125899 -1.64349 -0.946388 -1.86426 -1.10882 -0.463587 -1.95633 -0.961883 0.565383 -0.13837 -0.576545 -0.661792 0.0402329 -0.629213 -0.371676 0.108573 -0.580068 -0.189622 -0.465167 1.21217 0.889833 1.77154 1.3528 0.225024 0.773665 1.79177 1.23946 -0.225003 -0.961965 -1.25668 0.3425 -0.42058 -1.08132 0.694137 0.265085 0.317379 0.0221433 -0.20169 -1.19126 -1.23591 -0.757607 -0.384518 -0.359475 -0.740226 -0.27563 -0.386753 0.01291 0.0843824 1.20344 0.734954 0.295503 0.987884 1.75744 0.999936 0.926501 0.921801 -0.933418 -2.11515 0.207318 1.02785 1.43938 0.872166 0.583703 0.0766737 -0.522548 -0.757618 -1.24523 -0.713256 -1.14352 -0.273073 0.566637 -0.936552 -0.81335 0.629203 0.381421 0.388146 0.141245 1.24236 1.26383 -0.57525 0.602238 0.809145 0.984328 -0.442124 -0.489928 -1.20858 1.2857 1.92868 1.50958 0.798699 1.29017 0.48191 1.13435 -0.996771 -0.140822 0.634784 -0.288602 0.759702 -0.22861 0.230323 0.232471 0.914713 -0.183333 0.322895 -0.497292 0.587483 -0.921804 -0.533016 0.338306 0.477775 -0.936309 -0.506378 -0.723333 -0.271687 1.25798 1.58181 2.62713 1.05562 1.67025 1.02928 -0.040103 -0.0486687 -0.902011 0.163823 -0.181832 -0.662771 -0.719577 0.784544 -0.246913 -0.0621083 0.442624 -0.770272 -1.2902 -0.892915 -1.05256 0.3616 0.142154 -1.58844 -0.117121 -0.657486 -0.454548 1.17301 0.997128 1.25499 2.53373 1.63007 0.392254 -0.0099294 0.928614 0.877236 -0.400381 -0.947362 0.0127377 0.481613 -0.396303 0.0199375 -0.0220052 -0.254661 -1.07008 -0.496741 -0.0403589 0.157773 -0.0560379 1.06654 -1.78059 -1.80381 -0.396999 1.04048 1.78322 1.48678 0.205024 1.67766 1.41087 0.310372 0.611047 1.27426 0.748524 -0.40399 0.702518 -0.27819 -1.07569 0.568702 -0.920575 0.646046 0.74858 -0.206382 0.797357 -0.189236 -1.52795 -0.384505 -0.288071 0.316238 -0.0134818 -0.984557 -0.11301 1.63292 1.73229 0.467841 0.510846 -0.349475 0.98244 0.347338 0.549989 0.823156 -0.777039 0.396128 -0.609512 -0.978414 0.155974 -0.317922 0.210175 -0.683021 0.733937 -0.794969 0.377681 -0.328161 -0.114471 -1.42852 -1.09986 -1.37408 -1.49272 -1.36137 0.00844432 2.58745 0.536374 0.536746 -1.11884 -0.80545 0.327935 -0.0641708 0.486554 0.558453 0.222383 -0.95331 -1.03314 0.454666 -0.61962 0.559397 0.202594 0.720756 -0.112346 -0.925147 0.671512 -1.19901 -1.57532 -1.29444 -1.39883 -1.22793 -0.796853 -0.16263 -0.462097 1.50426 -0.279905 -0.250058 -0.943504 -0.242099 -0.727589 -1.14885 0.117084 -0.334283 -1.49592 -0.0192347 -0.727722 -1.18995 -1.01839 0.122375 -0.351814 -0.572619 0.659564 0.549592 -0.65478 -0.0516138 -1.65293 -1.38675 -0.495482 -0.161562 -1.56569 -0.701264 -1.14172 1.11176 0.631842 -0.39487 0.0758674 -0.502142 -0.354399 -1.58566 -1.46129 -0.115037 -0.41215 -0.0604052 -0.0424073 -0.404669 -0.945821 0.717702 0.0885293 0.676742 0.380914 -0.519804 0.265622 -0.245307 -0.689714 -1.06516 -1.17053 -1.16153 -0.105144 -0.469397 -1.18417 -0.213956 0.423801 -0.289822 -1.33466 -0.7066 0.402236 -1.25165 0.0989613 -0.454744 0.12425 0.318081 -1.0798 -0.526343 -0.480988 -0.86794 0.741325 0.294712 0.26383 -0.778408 -0.0180029 -0.051724 -0.603343 -0.893434 -1.04004 -0.655715 -0.277021 0.508911 -0.0247932 -0.916986 -0.937179 -1.08191 -1.46549 -1.73692 -0.170563 0.118639 0.649504 -0.604362 -0.370299 -0.829326 -0.34548 0.272495 -0.800373 0.421876 0.940855 0.926878 -0.5468 0.0806943 -0.641632 0.239127 -0.439518 0.109519 -0.472414 -0.436976 -0.587682 -0.738622 -1.15742 -0.908897 -0.822316 0.443157 -0.253853 0.659308 0.817161 -0.174495 0.206416 0.367178 0.392536 -0.726176 0.426694 -0.850707 -0.598342 -0.405288 0.484054 0.775079 -0.435469 -0.461944 -0.211099 0.990294 0.610199 0.967166 0.660117 -0.153602 -0.634485 -0.183867 0.521152 -0.508295 0.495695 -0.283609 1.46704 0.617441 1.60713 0.869916 0.606998 -0.131892 0.923782 0.251155 0.85031 -0.634264 -0.0483792 0.526295 0.740654 0.0264596 0.149144 -0.4541 -0.0276697 0.60814 -0.465465 0.760856 0.0586629 0.404647 0.840903 -0.021158 1.8829 0.240597 1.11571 0.370835 1.22963 0.554344 0.916186 0.716938 1.22237 0.275837 -0.138954 -0.677117 -0.352386 -0.655183 -0.769895 -0.554802 0.467208 -0.839656 0.521714 0.961669 0.529271 0.795509 -0.537248 0.704822 -0.0192579 0.504411 -0.00191989 0.573728 -0.133059 0.348498 0.0130828 0.130089 0.46107 -0.475755 -0.0834375 -0.590742 -0.0219231 -0.546796 0.391158 0.47262 -0.618064 0.00764178 -0.194372 -0.624744 -0.734184 0.322367 0.389203 -0.78338 0.43852 0.303781 -0.732141 0.562641 0.0394537 0.90235 0.801177 -0.884768 0.804386 1.01771 0.876304 1.04477 0.356583 -0.770563 0.134206 0.252461 -0.801482 1.00693 0.644084 -0.0288908 -0.857364 0.552232 0.46617 0.0531328 0.625233 -0.0481887 0.717643 -0.438765 0.473434 -0.19071 -0.619251 -0.458663 0.597705 -0.674917 0.921445 -0.606555 -0.595874 0.459471 0.905945 -0.969286 0.275674 0.70397 0.991333 0.228065 0.775323 -0.299844 0.209143 0.881161 -0.881039 0.0921354 -0.231971 0.988403 -0.519272 -0.148961 -0.725089 0.167455 0.692007 0.428999 -0.465194 -0.480223 -0.102154 0.0366941 -0.041457 -0.343996 -0.268042 0.31783 -0.38146 -0.33742 0.570669 0.105129 0.200643 -0.9697 0.477729 -0.631639 -0.568527 0.748665 0.218891 0.758354 -0.350932 0.37431 0.231788 0.883358 0.286782 0.91174 0.803332 0.0110334 0.191441 -0.119307 0.15402 -0.031313 -0.950963 -0.8765 -0.019667 -0.290443 0.164082 -0.208042 -0.70821 -1.00055 0.750163 -0.345689 -0.688343 -1.03489 -0.424413 0.905911 0.483549 0.280936 0.560032 -0.465926 0.153783 0.487167 0.643544 0.504865 -0.470685 0.825781 0.230035 -0.0835076 0.704261 0.468313 -0.871283 -0.704896 0.181803 0.496796 -0.581759 0.583833 -0.746092 0.201483 0.249848 -0.676787 -0.124691 0.670366 -0.834347 -0.345572 -0.749923 1.03339 0.370743 -0.409935 0.141819 0.194739 0.0951872 -0.343187 -0.144927 -0.522495 -0.353098 0.0321536 0.559395 0.709656 0.571147 -0.0483614 0.456625 -0.786826 0.786706 0.435349 -0.186895 0.00435408 0.0893347 -0.235002 -0.321951 -0.310009 -0.817644 -1.11547 -0.876135 0.54091 0.884899 -0.00766528 -0.292649 0.341716 -0.127659 0.953618 0.113507 -0.344787 -0.844094 -0.00221059 0.143059 -1.23032 -0.735038 -1.17302 0.22133 -0.757093 -1.21233 -0.122397 -0.798631 -1.45922 -0.907502 -1.40737 -1.02984 -0.444163 -0.109719 -0.685303 0.402949 -0.879724 0.0355081 -0.0911619 0.263697 0.155614 -0.829707 -0.792412 -0.057759 -0.0695061 -0.0735381 -0.290271 -0.371931 0.25239 -0.220967 -0.141541 0.105911 -1.65994 -0.929026 -0.371596 -0.842262 -1.27266 -1.65503 -1.75362 -0.870472 -1.97813 -0.345376 -0.791365 -0.43788 0.784456 -0.693022 -0.611476 -0.51489 0.411054 -0.0661198 0.745517 0.581312 -0.0455428 0.549952 -0.815065 0.569725 -1.13182 -1.40884 0.468318 -0.466628 -1.09799 -0.886677 -1.24043 -1.40538 -0.875059 -0.766412 -1.05657 -1.42329 -0.469135 -0.73209 0.352317 -0.191225 -0.514729 -0.919331 -0.0959182 0.475954 0.839439 -0.610622 -0.296769 -0.598269 -0.184834 0.236809 -1.34155 -0.790129 -1.02116 -0.910269 -0.32432 -0.802016 0.372534 -0.792133 0.605408 -0.625229 0.461879 0.634791 0.482826 0.318065 0.727045 1.23903 -1.0773 1.11207 1.40434 0.386 -0.541577 -0.323903 -0.525148 0.711169 -0.372436 -0.474324 0.169802 0.566097 0.79396 -0.763121 -0.831704 -0.563469 -0.428326 0.237669 -0.05847 1.28466 1.38676 1.64213 1.77641 1.72428 1.32756 1.11065 0.404633 0.642378 0.201007 0.609799 1.68597 -0.0818465 -0.796045 0.0464057 0.142328 -0.627824 0.34128 0.229662 0.910549 -0.734963 -0.213581 -0.485194 0.282487 -0.102501 0.774575 -0.0562979 0.0746887 -0.424793 0.295971 1.73483 0.247725 0.273181 1.65443 0.700699 1.15616 1.03757 0.723243 0.350731 0.835338 1.06043 0.863948 -0.50598 -0.755828 -0.496591 0.285838 -0.646582 1.00206 -0.337579 -0.00862807 -0.149137 0.70521 0.0553287 0.374341 0.486569 -0.532231 0.150006 0.566666 -0.238804 1.02146 0.587017 -0.996379 0.167032 0.290065 1.20172 0.902371 0.969613 0.942693 1.42915 0.841405 -0.17731 0.0652112 -0.28066 -0.750794 -0.0966227 -0.652915 0.241582 0.845032 0.0928086 0.965633 -0.224961 0.901079 -0.0795177 0.689351 1.28861 -0.341998 0.312095 -0.88839 -1.94616 -0.68352 -1.90167 -0.673324 -0.374379 -1.46102 -1.0134 0.0636521 0.967594 -0.668109 -0.169957 -0.238685 0.912325 0.579625 -0.417572 0.627585 -0.274837 0.352772 -0.298611 0.136569 -0.363677 0.296141 0.237836 1.33777 0.110341 0.137592 -0.760762 -1.39572 -2.02571 -2.42574 -0.893288 -1.01831 -1.90273 0.023 -0.0706463 -0.674982 -0.295329 0.411972 -0.0906888 -0.770012 -0.60178 -0.729842 0.291578 -0.573049 -0.5427 1.3042 0.261272 0.762553 0.153091 1.29556 -0.346754 -0.743698 0.517259 -1.42725 -1.53489 -1.49704 0.509594 -1.30322 -1.40436 0.0226393 -1.48873 -1.49234 0.170178 -1.03147 -0.287745 0.243311 -0.829234 -0.953411 -0.158726 -0.831127 0.148261 -0.329086 0.816002 0.249412 -0.951527 -0.214139 0.139718 -0.537701 0.566195 0.926804 -0.385683 -1.51751 -0.31689 -1.65431 0.741549 -0.819168 -0.560665 -0.634922 0.164428 -0.0379929 -0.872462 -0.00431293 -0.755114 -0.883807 -0.370302 -0.345484 -0.554547 0.0133775 0.4775 -0.290912 0.877402 0.348303 -1.09911 -0.980998 -0.46067 -0.225364 0.321284 -0.882078 -0.204159 -0.683701 -0.638731 0.183897 -0.638908 0.657514 0.0541424 0.07062 -0.814397 0.0356586 -0.351396 -0.168119 -0.383586 0.873375 -0.752097 0.99823 -0.195685 -0.199763 0.304895 0.807645 0.672516 -0.668075 -0.0251018 -1.43961 0.708019 0.600156 -0.227405 -0.538431 -0.679904 -0.147738 -0.957307 0.109546 0.898977 -0.747542 0.19947 0.212286 -0.886638 -0.782905 -0.733526 -0.251348 -0.663535 0.875136 0.796517 -0.220536 -0.125218 -0.461784 0.334016 0.74135 -0.39606 0.0147057 0.693645 0.346629 -0.438978 -0.0294358 -0.531676 1.23267 0.373963 0.259387 -0.632385 -0.425505 -0.217598 -0.562257 0.627409 0.100327 0.0697951 -0.581908 -0.510335 -0.759518 0.835574 0.805385 -0.643656 -0.460799 0.510726 -0.789101 -0.644443 -0.532488 -0.00918894 -0.292234 0.28925 1.39989 -0.399619 -0.0483468 -0.435073 -0.857714 -0.175654 -0.13041 0.350146 0.0806581 0.164101 0.460731 0.0617528 -0.401947 0.26077 0.585782 -0.537833 -0.851796 0.90802 -0.154567 -0.423644 -0.264382 -0.116809 -0.695733 -0.909176 0.513878 -0.499127 0.882818 -0.739654 0.743107 -0.183525 0.380804 0.297374 -1.51857 -0.653886 -1.02485 -0.938905 0.396841 0.480408 -0.31845 -0.244054 -0.516596 0.58091 -0.00327218 0.324868 -0.235509 -0.837781 -0.243621 0.634023 -0.98291 0.570849 -0.118002 0.580166 -0.0677482 -0.425604 0.312113 -0.543724 -0.0752544 -1.54438 -1.41677 -0.928546 0.319097 -0.935057 -0.584819 -0.85497 -0.302185 -0.767869 -0.241125 -1.08521 -1.08792 -0.885236 0.919465 0.132582 -0.714388 0.0845266 0.857751 0.235572 0.873226 -0.764519 0.545024 0.759592 0.560369 -0.977074 -1.28748 -0.89072 -0.237128 -0.609933 -1.2526 -0.576415 -0.773051 -0.392303 0.231512 -0.0224811 -0.174139 0.732351 -0.16999 0.21323 -0.0808528 -0.272989 -0.669086 -0.569647 0.132834 0.00715232 -0.318889 0.807367 0.852107 -0.256325 -0.896462 0.584431 -0.48999 -0.393539 -0.23463 -0.0582511 -0.638955 -0.0204969 0.945442 -0.570262 0.564111 -0.0136023 0.571008 -0.36018 -0.105203 -1.41971 -0.403907 0.545247 -0.26366 -0.695559 -0.960446 0.178306 -0.483585 0.584259 0.464382 -0.250099 -0.467818 -0.980712 -0.190832 -0.576689 0.436809 -0.304037 -1.1145 0.337046 0.992756 -0.701808 -0.0374979 -0.863872 -1.01148 0.412551 0.469571 -0.319747 0.469947 -0.257131 -0.334043 0.735111 0.0225542 -0.362718 0.995787 -0.123041 0.0716321 0.127346 0.269198 0.717399 0.43498 0.0479445 0.0555131 -0.941505 -0.699889 -0.776294 0.32873 0.756876 -0.313433 -0.0597991 -0.0872288 -0.690583 -0.145534 0.987669 -0.45024 -0.338869 0.548158 -0.809966 -0.239864 1.03765 0.161899 -0.454375 0.0724547 0.313331 0.952732 -0.207739 0.498703 -0.146886 -0.93347 -0.498581 -0.744499 -0.0357253 -0.527772 0.264664 -0.398897 -0.867353 0.556569 0.853575 0.474397 -0.582988 -0.144235 0.427141 -0.705444 0.41597 -0.654722 0.136022 0.0556818 -0.429597 -0.0872386 0.67225 0.325666 -0.671498 0.760497 -0.36314 0.438643 -0.0793176 0.276101 0.413617 0.564867 0.895383 -0.875895 -0.943883 -0.435466 -0.326097 -0.0343775 0.0183973 -0.10056 0.44537 0.552824 0.0982819 0.215254 -0.407768 -0.515651 0.265207 -0.571129 0.491046 0.934814 -0.89056 -0.205315 0.282249 -0.422712 -0.886044 -0.481185 0.266274 0.117649 -0.656178 -0.860103 0.881283 0.607532 0.561083 0.353435 -0.132115 0.098117 -0.257912 0.840388 -0.647755 -0.29895 0.0564751 0.510422 0.289773 -0.494491 -0.55443 0.11655 -0.128269 0.578112 -0.286172 0.0296946 0.451216 0.465194 -0.569811 -0.014008 -0.448958 -0.596362 0.467086 -0.380596 -0.483322 -0.383831 -0.619861 0.591637 0.375609 0.982895 -0.354324 0.127579 0.461324 -0.566515 -0.176283 0.740752 0.281619 -0.789879 -0.293836 0.291984 0.909762 -0.419599 -0.545825 0.0586718 0.195681 -0.526231 0.205603 0.674123 -0.809809 -0.862484 0.0261544 0.51561 0.541307 0.108832 -0.855211 -0.0794553 -0.365768 0.120655 -0.194076 -0.630783 -0.406434 1.2673 -0.433733 -0.672521 -0.903894 0.00242296 0.905141 -0.880765 -0.146289 -0.800198 0.344657 -1.01478 -0.780388 0.429837 -0.118939 -0.440413 0.436934 -0.987915 -0.414045 0.203201 0.622445 -0.314012 -0.882383 -0.83652 0.320118 1.04971 0.183954 1.17393 0.539065 0.353819 0.164002 -0.22081 0.14063 0.64082 -0.476177 -0.592806 -1.49191 -0.265978 -0.68039 -0.286151 -1.03783 -0.384361 0.237471 -0.197933 -0.952269 -0.837458 -0.474776 0.192442 0.282487 0.627487 0.0391103 0.570956 -0.447304 0.792317 0.905618 0.440195 0.833286 1.37247 0.647398 -0.478019 0.289758 -0.789512 0.237863 0.52623 0.242299 -1.00832 -0.998841 -0.239228 -0.980334 0.774089 0.743508 0.883618 0.467309 0.360515 -0.796014 0.383133 0.911638 0.608073 0.879571 -0.110098 -0.275457 1.44364 1.35039 2.27325 1.13426 0.782693 0.745745 0.777547 0.508081 2.38192 0.897811 -0.663032 0.764511 -0.617833 0.58911 -1.21018 -0.0741574 -1.06076 0.422131 -0.319221 -0.529297 0.836787 -0.754997 -0.0404384 0.742952 0.20155 0.241511 0.350899 0.907701 1.63153 -0.00403748 0.316901 1.05124 0.753102 0.410868 -0.119456 0.256629 -0.483786 -1.25618 -0.0310234 -0.692258 -1.42868 -0.334375 0.155041 0.0514501 -1.00814 0.311498 -0.915461 -0.792043 0.921337 0.36228 0.709712 0.0522866 -0.17546 0.398691 -0.420377 0.746472 0.801829 1.35733 0.536878 0.137838 -0.272677 -0.849034 -0.836461 -1.98488 -1.12656 -1.67937 -1.49246 -1.15007 -0.668655 -1.23795 -1.01999 -0.247221 0.426137 0.0737523 0.766644 -0.450739 -0.314082 0.212617 0.0825752 -0.286776 0.45972 0.416679 0.0151939 -0.387803 0.190236 -0.29206 1.51555 0.902675 0.272369 -0.120748 -1.11965 -0.292091 -2.04906 -1.36448 -0.494403 0.625897 -0.412531 -0.709432 -1.01731 -0.55543 0.250911 -0.0663199 -0.149669 -0.205724 0.777928 0.501416 -0.539994 -0.0608309 -1.21304 0.0814249 0.987811 -0.321849 -0.445097 -0.508376 0.722858 0.366887 0.483001 -1.4177 -0.436424 -0.902907 -0.113948 -0.894138 0.132617 -0.724459 0.0838212 0.435557 -1.88342 -0.938933 -0.502176 -0.878255 0.067282 -0.643112 -0.362422 0.398634 0.66892 0.344681 0.327653 -0.071378 -0.301071 0.255583 0.224292 0.486282 -0.133788 0.404821 0.407605 -0.990563 -1.26658 -2.20652 -0.187267 -0.735428 -0.73587 0.892878 -0.879423 -1.10213 -1.66576 -0.00426982 0.296528 -0.450808 -0.383033 -0.0457519 -0.726726 -0.388297 -0.89577 -0.663524 -0.37421 -0.127852 0.727166 0.627039 0.383087 0.551871 0.29238 0.603933 -0.0808418 -3.04675 -2.23693 -1.84062 -0.51844 -1.7932 -0.805852 -1.38006 -0.498206 -0.384258 0.648216 0.389997 0.589961 0.838208 -0.185142 0.600659 0.801625 -0.331406 0.356879 0.30293 0.555628 -0.510383 0.889313 1.05173 -0.294607 -0.0121543 0.442816 0.552203 -0.868051 -0.764107 -1.1001 -1.73305 -1.0851 0.181363 -1.31553 -1.15591 -0.335523 0.0655968 0.476939 0.671654 0.928878 -0.604027 -0.249015 0.600833 -0.0869473 -0.665763 -0.0196771 -0.783292 0.362261 0.0894825 -0.0422434 -0.392566 0.52463 0.848042 0.0505422 1.03788 -0.171594 -0.144004 -0.494032 -1.08775 0.0684171 -0.380217 1.01061 0.0149753 -0.224994 1.53278 1.48606 0.18075 0.162038 -0.0392036 -0.493242 0.841764 -0.513773 -0.600253 0.119379 0.399161 0.440712 -0.0679711 0.759668 1.00985 0.51054 -0.210865 1.22954 1.43423 1.08352 0.203127 -0.232537 -0.543015 1.0604 1.34759 0.900494 -0.503182 -0.369939 0.252347 0.929167 0.975275 1.09996 0.42668 0.94296 -0.940896 -0.496874 -0.239643 0.642449 0.824524 -0.315624 0.78174 1.19567 0.510223 0.665233 1.4522 0.767451 0.370773 0.283234 0.162481 0.97169 -0.667739 -0.180963 0.267878 -0.554782 -1.11237 0.684397 0.300124 0.151873 -0.37826 0.208141 1.32711 0.327715 0.0107539 0.475068 -0.177091 -0.771049 -0.424388 0.114341 -0.258145 0.420978 0.755571 0.710453 0.171223 0.652146 1.15203 0.727065 0.8293 -0.98672 0.217641 0.70777 0.56544 -0.050886 -0.404178 -0.362438 0.515383 0.37488 0.667478 1.38682 1.05965 -0.220222 0.383141 -0.441023 0.999187 0.242358 -0.230441 0.464367 -0.619427 -0.509002 0.777324 0.475533 0.852512 0.629725 0.872624 1.00164 0.0571754 -0.47645 -0.127318 0.567606 0.67597 -0.233228 0.143579 0.971959 1.36548 1.42058 1.31158 1.44661 0.579773 0.576456 0.202836 -0.44908 0.402276 0.690724 -0.644294 -0.990375 0.795496 0.951905 -0.138102 -0.0815548 0.658615 0.638248 0.432145 0.886121 0.0338083 -1.48714 -0.528794 -0.242343 -0.490812 -0.312435 0.360037 1.56015 1.09169 2.26136 1.9257 1.03697 -0.135136 0.0502295 -0.844512 -0.0511186 0.431692 -0.201841 -0.799138 0.720285 -0.345809 0.152617 1.19016 0.201441 -0.687015 1.07471 1.72919 0.940377 0.258411 -1.17012 -0.716926 -1.5182 -0.264075 0.36242 1.51119 1.67426 1.74648 1.25361 1.73544 -0.305184 -0.0131169 0.445798 0.298175 0.267251 -0.421234 0.0847678 -0.197571 0.661926 -0.417472 0.617582 -0.430574 0.598853 0.568842 0.738097 1.79063 1.75136 0.272916 -0.785766 -1.251 -1.07581 0.197535 2.00777 1.80776 1.53316 2.40645 1.91542 0.371137 1.33487 -0.572783 -0.0147199 0.983704 0.793389 0.907845 -0.525715 -0.186609 0.026268 1.52674 1.22065 0.624113 -0.321368 -0.516966 0.992417 -0.32942 -0.253958 1.1384 -1.10074 -1.017 0.1017 0.479131 0.873501 0.685101 1.70492 0.767653 0.652093 -0.156356 -0.0405984 -0.117901 -0.800715 -0.666433 0.973266 -0.356478 0.611478 -0.522483 0.617015 -0.115731 -0.0935068 -0.71249 0.0995604 -1.14343 0.0501088 0.618938 -0.271213 0.912496 0.0741406 0.296567 -0.377937 1.06028 1.73216 2.1762 0.953656 1.17353 0.470529 0.46972 0.539327 -0.546848 -0.534529 -0.915769 0.613392 0.323893 0.885317 -0.212841 -0.642642 -0.0604722 0.0103053 -1.09634 0.31227 -0.268398 -1.71371 0.700542 -0.388089 0.145118 0.741244 0.775449 1.59461 -0.142862 1.8035 1.58726 0.903225 0.820677 0.216417 0.0592343 1.03315 -0.924667 0.969473 0.767388 0.086581 0.927061 0.187559 -0.627889 0.245931 -0.923253 -0.180264 -0.574097 -0.447189 -0.804847 -1.45859 -0.98452 -1.0417 0.113687 -1.21922 1.01852 -0.112781 0.781596 0.215749 0.561312 1.15306 0.464217 -0.142853 -0.490228 0.432671 0.459913 -0.619994 0.160985 0.729179 0.431379 -0.314336 0.0941835 -0.609591 -0.052697 -1.01344 -1.5068 -1.3699 -1.52655 -0.726526 -0.923809 -0.853294 -0.173587 -0.0389478 -1.15006 -0.424447 -0.958102 -0.313964 0.0636927 0.255058 -0.760209 -0.146707 -0.128304 0.897119 -0.732166 0.230326 -0.0521562 -0.382977 -0.763176 0.217078 -0.407064 0.0198577 -0.422471 -0.433711 -0.503981 0.303062 -1.05871 -0.842391 -0.568614 -0.100436 0.498839 -0.441428 -0.983766 -0.434011 -0.574973 -0.537851 -1.04145 -0.112656 -0.260021 0.00346251 -0.638689 0.793465 0.536058 0.576281 -0.482284 -0.0917081 0.887875 -0.892636 -0.862789 -0.507067 0.558461 -0.441687 -0.879394 -0.113732 -0.126229 -0.447589 -0.280931 -0.0674825 0.291961 -0.788492 -0.614562 -0.642411 -0.62496 -0.7636 0.272694 0.422346 -0.998786 0.0578422 -0.63021 0.364055 0.680837 0.615345 0.85168 0.939757 0.533311 0.432112 0.938475 -0.912229 -0.194372 0.641774 0.702567 -0.801752 -0.480148 0.600635 -0.193457 0.0978492 0.824572 -0.827982 -0.092562 -0.951842 0.0212103 -0.393414 -0.734001 0.255104 0.744255 -0.167577 -0.873714 -0.107273 -0.320109 0.9682 -0.573473 -0.735527 0.563585 -0.129185 0.405011 0.226844 -0.887935 0.541867 -0.312273 0.390672 -0.863364 0.142162 -0.750408 -0.542439 0.553972 0.553158 0.313442 0.742035 0.299308 -0.677096 -0.0417233 -0.16126 -0.217716 0.170787 -0.392924 -0.297159 -0.230628 0.308451 0.0756553 0.818903 0.859981 -0.291848 -0.10304 -0.804687 0.56642 -0.80192 0.525892 0.000994336 -0.246665 0.293087 -0.689192 -0.0163916 0.422595 0.178875 0.152653 0.431822 -0.474175 1.01727 -0.403326 0.840493 0.750166 -0.0505367 0.799776 0.196502 0.142537 -0.972289 0.744682 -0.594348 0.0954924 0.664723 -0.0717768 -0.764464 0.896302 -0.389861 -0.72685 -0.559722 0.699596 1.65011 0.885217 0.415905 0.0175231 -0.758842 -0.280369 0.717102 1.15189 0.102322 0.133153 0.396102 1.34827 0.938084 1.14001 1.0208 0.0569666 -0.374399 0.0791345 -0.319071 -0.476669 0.307834 0.753134 -0.498753 -0.585777 -0.265738 0.0521158 0.627202 0.0882183 0.297411 -0.360477 0.176537 -0.0124825 -0.257651 -0.893627 -0.173935 0.944097 -0.46192 0.812494 0.497071 0.753857 -0.660107 0.995591 -0.423147 -0.187158 -0.497311 -0.214818 -0.167272 -0.308023 0.775066 0.430302 -0.646698 -0.972787 -0.0692239 -0.780169 -0.773252 1.06379 1.3354 0.698601 1.3992 0.151462 0.25134 -1.08124 0.318538 0.760318 1.40841 0.947242 1.1657 0.35045 -0.908546 0.275115 0.577927 0.0548719 0.839121 -0.320584 0.138157 -0.477401 0.899526 -0.411586 -0.574242 0.156283 -0.241148 0.991096 -0.11308 0.677953 0.360545 0.731738 -0.885348 1.20069 0.178558 -0.296023 -0.675692 -0.164686 0.21791 0.430204 0.250032 -0.5301 -0.875888 -0.503066 -0.608319 -1.08832 -0.72788 0.412093 0.587678 0.187721 0.856763 0.389533 -0.398934 -1.37187 0.244359 0.57352 -0.0271515 0.823591 0.736293 -0.434099 0.400286 0.249877 -0.435353 0.469906 -1.1224 -1.33373 -0.205674 -1.18914 -1.50027 -0.947959 -0.566566 0.191744 0.17531 -1.15279 0.164644 -0.233003 -0.238953 -0.771719 0.949863 -0.846997 -1.09846 -0.410649 0.716675 -0.370552 0.411313 1.37745 -0.115245 -0.823235 0.101773 -0.167703 -0.753434 -0.879429 -0.513644 -1.26822 -1.95816 -1.4273 -1.38605 -0.0806968 -1.32637 -0.486978 -0.0789613 -0.0195716 -0.138102 -0.536854 0.152225 -0.651693 -0.202045 0.199511 -0.249587 -0.246275 -0.462537 -0.106355 1.13648 0.00160163 -0.178847 -0.0550533 -0.174659 -1.29142 -1.42496 -0.81168 -1.88078 -0.961481 -0.842514 -0.421209 0.0273077 -0.445215 -1.68503 -0.233319 0.0646804 0.558603 0.654838 0.391316 0.106723 -0.683705 0.475475 -0.150067 0.246545 0.110406 0.992447 -0.0962606 0.226406 0.927429 -0.144547 -0.470139 -0.697042 -2.19936 -2.55222 -2.32101 0.340241 -1.04089 -0.203695 -0.86531 -0.447856 -0.35404 0.463366 0.473894 0.291777 -0.863248 -0.430773 -0.720873 -0.40361 -0.577058 0.567369 -0.28807 -0.61583 1.08535 -0.165861 -0.199176 -0.496861 0.441642 -0.00127141 -0.984087 -0.219234 -2.03629 -1.13392 -2.18521 -1.109 -0.747121 0.319378 0.066835 0.167753 -1.05037 0.786347 -0.12985 0.710925 -0.266086 -0.391462 0.814083 -0.017491 0.938652 -0.754101 0.45049 0.592092 1.52617 0.0529724 -0.210643 0.754216 -0.814399 -0.0148197 0.690796 -0.590983 -2.37826 -2.4338 -2.66198 0.121051 -0.0410573 -0.86314 0.450958 -1.14248 -0.0377892 0.250168 0.12032 0.456966 0.409475 0.249535 -0.285873 0.976684 -0.0361037 -0.539264 0.0860042 0.538581 0.18124 0.741261 -0.049742 -0.175877 -0.212994 0.11471 1.04674 -1.12905 -2.06679 -1.61229 -0.926654 -1.07546 -0.876855 -0.138246 0.638551 -0.539104 -0.0698189 0.460021 1.4077 -0.590803 -0.715521 0.859613 -0.732107 0.979186 -0.857557 0.556273 -0.419102 1.04699 0.443429 0.811551 -0.96272 -0.317175 0.321003 1.54373 0.216615 -0.279491 -0.344492 0.239169 -0.74197 -1.25164 -0.747144 -0.382275 -0.769687 -0.727524 -0.242117 0.75141 -0.698987 0.932805 0.970921 0.441436 -0.976128 -0.015595 -0.212265 -0.144001 0.267578 0.525782 -0.225151 -0.368747 0.0944055 0.823882 1.28221 0.59192 0.77178 -0.85841 -0.722053 -1.21404 -0.790082 -0.898395 -0.627344 -0.879979 0.103254 -0.627217 -0.786119 -1.26252 0.401495 -0.0872925 -0.665321 0.568708 -0.589223 -0.760491 -0.373661 -0.877126 -0.589243 -0.556133 -0.938581 0.360612 0.190525 0.628668 1.98625 0.936316 1.55569 1.08774 -0.879987 -0.6922 0.319313 1.24267 0.255101 -1.33016 -0.893766 0.123595 -1.03162 -0.0619502 0.143418 -0.573717 0.733079 0.403073 0.475666 0.844722 0.590099 0.52845 -0.458787 -0.124032 0.0990621 0.190062 -0.604717 0.572118 1.97598 2.3027 1.84789 1.7964 -0.624293 0.215664 0.786617 -0.34168 -0.148102 -1.02987 0.519657 0.52564 0.215347 -1.30447 0.750573 -0.098883 0.673963 -0.636342 0.558432 -0.517319 0.574815 -0.42758 -0.215499 -0.259117 -1.32653 -1.34356 0.801586 0.466531 0.424599 1.98076 1.11975 1.53373 -0.164254 0.464193 0.579843 0.297814 -1.10847 -0.480478 -1.17334 -0.203686 -0.310003 -0.723738 -0.299167 0.695858 0.0356701 -0.656679 -0.177313 -0.535753 0.977676 0.0440833 -0.196388 -1.23997 -0.513706 -1.48508 0.0743579 1.15456 1.55223 1.83611 2.89242 1.75625 1.42027 1.49516 0.297234 0.7367 -1.25534 0.690406 -0.484075 0.675135 -0.0384587 -0.295177 1.33476 1.01195 -0.791659 -0.276168 0.752562 -0.72216 -0.186043 0.465133 -0.772432 -0.0954588 -1.26066 -0.137059 0.226556 -0.201628 0.850122 1.59523 1.61968 1.15151 1.31949 1.11022 1.48407 0.428722 0.275167 -0.886538 -0.180094 -0.418361 1.27954 0.669285 1.12032 0.630534 -0.390231 0.17671 0.216996 0.830377 0.728558 0.874625 -0.307208 -0.898996 -0.250387 -1.29989 -0.125591 -0.113066 1.8 0.588565 0.368278 0.881527 0.351604 -0.112728 0.584472 0.113653 0.0549091 0.298768 -0.193401 0.967657 1.36361 1.81245 0.517683 0.0920968 -0.752122 -0.194222 -0.601184 -0.432784 -0.616993 -0.830871 -0.482152 -0.309484 0.55885 0.510151 -0.0421127 0.0322562 0.546785 0.330082 0.969533 0.66498 0.49171 -0.875409 -0.205966 0.316858 -0.0667754 0.625529 -0.166469 0.738159 0.940647 1.04514 1.09532 1.06364 -0.784922 -0.0530458 0.309854 0.658742 -0.337809 0.488564 -0.514059 -0.40281 0.368361 -0.0488485 -1.09195 -0.566838 0.0510819 -0.0819529 0.190996 -0.415886 -0.646588 -0.0999164 0.334147 0.709202 -1.11656 -0.938339 1.02479 1.49887 1.34197 0.550265 0.851532 -0.721785 -0.451419 -0.593255 0.889828 -0.560045 -0.905148 0.813549 0.482931 -0.124282 -1.07885 -0.899925 -1.73938 -0.526484 -0.89295 -0.447302 0.160355 0.176595 0.140042 -0.0292223 0.195523 -0.0528596 0.270757 0.691893 1.61158 0.438093 0.0523091 0.545731 0.277483 0.733565 0.918478 -0.556165 -0.368999 -0.707389 -0.0390332 -0.985156 -0.390607 0.552011 -0.774285 0.599423 -0.829798 -1.25378 -0.727096 -0.426363 -0.455973 -1.3872 -1.01396 0.273086 -1.01997 0.726119 0.444334 0.975136 0.531089 0.0523322 0.167376 -0.76602 0.402284 0.347743 -0.0882041 0.442858 -0.342387 -0.844722 -0.49028 0.0632648 0.0752125 0.460789 0.769738 0.367854 0.234118 0.499992 0.846043 0.534441 -0.870927 1.05753 0.121108 0.244853 -0.884125 0.658015 0.017887 0.487424 0.748188 -0.75977 -0.0903355 0.815167 -0.285506 0.28421 0.783074 0.511216 -0.799554 -0.149327 -0.270486 -0.345805 -0.95294 0.815196 0.321082 0.39451 0.284926 -0.423924 -0.12453 0.22646 -0.873344 0.481741 -0.463523 0.18999 -0.174576 -0.714005 0.969321 -0.758849 -0.761471 0.333441 0.624242 -0.853252 0.0650596 -0.0906094 -0.0116276 -0.560289 0.402936 -0.583972 0.104953 -0.456343 -0.359966 0.327067 -0.303995 -0.775994 0.961119 0.109714 0.614612 -0.843074 0.63152 0.0847164 -0.462071 0.366494 -0.611561 -0.384991 0.681753 0.370464 -0.746025 -0.0942717 -0.410993 -0.0138859 0.366924 -0.230934 -0.853511 -0.390973 -0.602832 0.625782 -0.199561 0.776482 0.104953 -0.920774 -0.912963 -0.218914 -0.467581 0.341917 0.520688 -0.551858 0.871347 -1.01416 0.926153 -0.879872 -0.79828 -0.0592464 0.289876 -0.439957 0.822388 0.442081 0.949775 -0.448677 0.100577 0.565294 0.793146 0.481857 -0.412763 0.892148 0.706839 0.296365 0.761834 -0.3419 -0.90072 0.247358 -0.929835 0.504925 -0.202462 0.614511 0.59333 -1.09915 -1.03801 -0.670452 -1.01106 -1.00498 -0.770025 -1.04324 0.000641492 -0.384466 -1.03906 -0.140082 0.689675 -0.642561 0.347125 0.376324 -0.924009 -0.266823 -0.211341 -0.346173 0.615989 -1.00546 -0.13958 0.0718859 -0.300041 -0.801719 -0.920358 -0.376421 0.17806 -1.87014 -1.48843 -1.13248 -1.13275 0.746821 -0.848978 0.173756 0.654612 -0.892781 0.404372 -0.0998374 -0.925202 0.449883 0.904352 0.212763 0.17539 -0.00613421 0.170193 -0.501071 0.679553 0.414158 0.208054 -0.525021 -0.289666 -1.41566 -0.200903 -0.0595903 -1.08082 0.373572 -0.24083 0.548614 -0.641576 -0.634812 -0.905907 -0.693155 -1.30736 -0.997053 -0.846162 -0.929083 0.0336697 0.617536 -0.255803 0.898896 -0.0717347 0.00912499 -0.603626 0.546735 -0.276581 -0.442745 1.31636 -0.0908712 -0.690964 0.117902 -0.401612 -0.660614 -0.259647 0.145965 0.294559 -0.848685 -1.16721 -0.731293 -0.600005 -0.76205 -0.160805 -0.640488 -1.08505 -0.76622 -0.474437 -0.188444 0.0578408 -0.815205 -0.3734 0.895566 0.307966 0.721125 -0.190724 0.397936 0.725685 0.0825565 0.424838 -0.793291 1.15905 0.408344 1.59832 -0.243513 0.405178 0.346952 0.303871 -0.247892 0.939596 -0.155332 0.50113 0.302281 0.740304 -0.373199 -0.461303 0.932799 -0.276412 -0.698358 0.130964 0.159394 0.96363 -0.934407 0.942095 0.0406475 -0.153129 0.502859 -0.212784 0.777003 0.912927 1.99697 1.17241 1.48616 0.96709 0.562689 0.428641 0.909373 1.12864 1.11409 0.245192 1.4831 0.578978 0.689904 1.07064 0.386858 -0.228003 -0.490913 -0.859009 -0.191015 -0.940997 0.297412 0.275869 -0.327253 0.0147526 0.585028 0.797058 0.467696 0.918546 0.721498 0.413136 1.15458 1.03331 0.858566 0.742362 2.61706 1.33474 1.55324 1.56318 0.32103 0.204685 1.347 1.04758 0.312535 -0.824837 -0.9712 -0.866193 0.157313 -0.693859 0.603608 -0.00772948 -0.0396902 0.274489 1.7631 0.842673 0.633011 0.28253 0.489642 1.56244 0.686305 0.897143 0.812389 0.364536 1.23792 1.82448 1.94435 0.706432 1.4329 0.809876 0.563625 1.15626 0.522018 -0.70028 0.516251 0.147543 -0.49395 0.982846 0.222293 -0.450321 0.0966002 -0.278654 -0.0406882 -0.568616 -0.51483 0.150199 -0.379635 1.8078 0.550442 0.422606 0.108087 0.838742 1.63535 1.04689 1.073 0.589795 -0.0509212 -0.0258853 1.38662 0.599257 -0.603036 -0.0161769 -0.23281 -0.0756054 0.892768 0.676626 -0.415059 0.531774 0.837809 -0.419092 1.07504 -0.154763 0.445746 0.112005 0.552828 1.23567 0.957188 1.31765 0.88302 0.867956 -0.370069 -0.120222 -0.702754 0.811014 0.50325 0.920449 0.506341 0.522946 -0.46905 0.0893492 -0.92177 0.0247449 0.0940275 0.812959 0.958571 0.0822116 -0.766436 0.86074 1.83931 0.604956 0.225662 1.35373 2.08566 0.738562 0.149893 1.71519 0.299827 0.624283 0.0636393 0.449472 0.661923 0.487076 -0.943982 -0.727845 0.965339 0.746037 -0.616012 -0.0873753 0.172169 0.155459 0.0699796 -0.820786 -0.0861228 -0.326512 0.502301 -0.216131 1.18167 1.70102 0.558208 1.63846 -0.304097 2.10175 0.842176 -1.57031 -1.77688 -1.60261 -0.733243 -0.116013 -0.693878 -0.216233 -0.977108 0.76942 0.922126 -0.668967 -0.397352 0.496708 -0.285937 -0.8302 0.0368811 0.475356 0.561449 -0.118944 1.04713 0.620685 0.284564 1.11334 1.155 0.830031 0.381517 0.214437 0.366457 -1.16939 -1.76956 -0.931048 -0.00181485 -0.393031 -0.303496 -0.588431 0.70069 -0.509723 0.381466 -0.637615 0.430685 0.398838 -0.0480687 -0.877603 0.356726 0.307442 0.913876 0.821204 -0.687691 0.619566 0.823182 0.411852 0.901854 0.779741 0.938716 1.09192 -0.580906 -1.77663 0.294638 -0.362079 -0.663614 1.0858 -0.293328 -0.700178 -0.497471 -0.128649 1.31953 -0.476117 0.412175 -1.04861 -0.351804 -0.863894 -0.569811 -0.699177 0.492443 0.542553 0.561501 0.73277 -0.196541 1.24598 0.919903 1.12341 0.988998 0.24418 -0.110227 -0.816905 -1.45301 0.0162659 0.671292 -0.431095 1.19912 -0.979346 -0.273265 0.266148 -0.11784 0.989669 -0.542401 -0.265348 -0.838365 -0.783985 -0.218055 -0.363084 0.577942 -1.04194 -0.158372 -1.01629 -0.737836 0.316166 0.399603 1.14214 -0.490695 0.595048 -0.113883 -0.0938454 0.0714108 -0.152695 0.670928 1.01253 0.258589 -0.88034 0.490095 -0.771269 0.309646 -0.7054 -0.809769 0.172763 0.653628 0.210188 -0.47618 -0.642323 0.917151 0.334935 -0.741326 -0.718134 -0.374576 -1.1548 -0.134938 -1.18376 -0.251304 -0.893543 0.359031 -0.398414 -1.09871 -1.30323 -1.0058 -0.900866 0.00700678 1.23819 -0.404093 0.236204 -0.193182 -1.76468 -0.486915 -0.789996 0.55463 -0.743965 0.384991 -0.948432 -0.547422 -1.2799 -1.78165 -1.49831 -0.82166 -1.85006 -0.715159 -1.63459 -0.630084 -1.61262 -2.36733 -1.48807 -1.91687 -1.18945 -1.91761 -0.881023 -0.645288 0.334889 0.243129 -0.63621 -0.726423 -0.0885414 -0.840324 -0.932138 -0.61061 0.0505169 0.495834 0.230708 0.924853 -1.06326 -0.968356 -0.525434 -1.1558 -1.75833 -2.03403 -0.867139 -1.74479 -2.66273 -0.52507 -1.53909 -2.64562 -1.57751 -0.82425 -0.17654 -0.516943 -0.692221 -0.535078 0.315741 -1.26651 -1.38824 0.107885 0.677452 -0.904257 -0.974365 -0.886711 -0.109242 0.833678 -0.279673 -0.752088 -1.00713 -1.70523 0.430718 -1.4202 -2.41211 -0.572978 -1.76168 -1.46783 -1.0339 -2.02051 -1.65497 -0.513078 -1.25597 0.0917817 -0.0387823 0.391536 -0.417434 0.061969 -0.018942 0.151994 -1.11231 -0.288938 -0.154637 -0.52464 0.806147 0.664086 0.656455 -0.607283 0.547962 0.211166 -0.0877923 -0.521184 -0.0231857 -0.403814 -0.417369 -0.913622 -0.375521 -0.0438325 -0.144711 0.0842024 0.111316 -1.01001 0.133886 -0.455288 0.287443 0.149276 -0.808395 -0.998929 -0.207127 -0.886807 0.510422 0.971435 -0.378521 0.995926 -0.453492 0.172114 0.921266 0.371796 1.05791 0.372262 -0.979939 1.57135 1.48305 1.07042 2.45048 1.22671 2.39542 1.00543 0.113499 -0.223374 0.359146 -0.551468 -0.009395 -0.897855 0.589805 -0.508061 0.543471 0.836001 -0.60332 0.816889 0.66216 -0.108862 -0.217934 1.01773 1.40019 1.48927 0.814593 1.07468 1.17947 0.417852 1.92115 1.31532 1.71912 1.37409 0.964373 0.705407 0.635076 -0.262377 0.0814425 -0.479939 0.337558 0.186602 0.590656 -0.640319 -0.79803 0.91725 -0.949644 0.419172 -0.431989 -0.188208 0.644536 0.665141 -0.548896 0.299427 0.840933 1.28931 1.28365 0.239329 0.896046 0.950889 -0.500371 0.579011 -0.0917249 -0.398108 -0.286301 0.773499 0.248793 -0.234315 0.230256 0.0489481 1.00598 0.308998 0.614279 -1.00265 -0.310465 0.622669 0.308939 0.390179 -0.063477 -0.700461 0.11641 -0.646929 0.696812 0.56855 -0.532095 0.622238 1.05257 -0.224543 0.163486 1.06869 1.02701 -0.895053 0.547532 -0.298502 0.88344 -0.812941 0.507199 -0.815934 -0.117455 -0.11887 -0.760186 -0.779778 -0.649159 -0.980041 0.000640869 -0.418439 0.808527 -0.395489 -0.371445 -0.208051 -0.815587 0.618437 0.77342 0.180963 -0.245747 0.472701 0.388666 0.158838 0.252207 0.957053 -0.736283 0.0572816 0.711261 -0.205508 -0.622109 -0.874677 0.765448 -0.629566 -0.621937 -0.469649 0.617359 -0.482894 0.959716 -0.6657 -0.280435 0.187475 0.458357 -0.015717 -0.69628 -0.0856655 0.59331 -0.629078 0.554552 -0.458159 0.371102 0.135808 0.918504 -0.288369 0.722587 0.0841396 0.120029 0.73986 0.431379 0.503647 0.446638 0.336344 -0.0834071 -0.788446 0.866512 -0.660207 0.433027 0.132603 -0.459517 0.464278 -0.750534 0.215293 0.266784 -0.926204 0.345313 -0.54281 -0.479805 0.65061 -0.233144 -0.572633 -0.457019 -0.140511 0.214685 0.012295 -0.0266098 -0.916826 0.116086 -0.691516 -0.191394 -0.283731 0.124119 -0.785028 -0.0248726 -0.330546 -0.557848 0.21604 0.641223 -0.944692 -0.0681538 0.278838 0.815607 0.230318 -0.692235 -0.436923 -1.09026 -0.645943 -0.131315 0.119595 0.436562 -1.27508 -0.5678 0.138617 -0.540135 -0.382244 -0.373236 -0.214762 -0.316351 -0.799018 -0.0748898 -0.953001 0.4185 -0.905148 -0.823115 0.146825 -0.0627059 0.398247 0.644056 0.34596 -0.933059 -1.36295 -0.171017 -0.26824 -0.944803 -0.435644 -0.51372 -0.270182 -0.169908 0.150857 -0.74061 -1.15246 -1.02622 -1.27863 -1.20266 0.124694 0.0295903 0.616974 -0.813609 0.891082 -0.298135 0.0679036 0.378399 0.411787 0.842274 0.642561 0.764603 0.0732841 -0.751552 -0.0606402 -1.4752 -0.389259 -0.84441 -0.238276 -1.49567 -0.19917 -0.502487 -0.715872 0.0837093 0.00701446 -0.904072 -0.439429 -1.72333 -1.54527 -0.591533 1.12438 -0.660968 0.57899 0.0588426 -0.449263 0.146886 0.745092 0.0310581 -0.898034 -0.717869 0.464056 -0.823817 -0.054304 -0.365766 -0.476496 -0.0643609 0.278842 -0.998231 -1.16376 0.343386 -0.140263 -0.319313 0.232564 -0.18867 -0.830331 -1.55049 0.547998 -0.0373863 0.341896 -0.754613 0.229988 -0.627605 0.0423292 -0.385968 0.871267 -0.0222212 0.414369 -0.449315 0.624286 -0.441985 -0.637062 -0.566127 -0.513121 -0.516447 -0.622629 -1.89552 -1.91199 -0.251314 -0.650368 -1.2731 0.0685555 -0.907416 -0.402805 0.563555 1.41038 2.39553 1.23579 0.953692 0.314524 0.227738 0.170535 0.915151 -0.663364 -0.691525 -0.521027 0.0584779 0.245024 0.495313 0.329797 -0.560984 -0.425977 -1.13674 -0.985424 -1.07165 -1.97194 -1.98853 0.0925453 -0.0875056 -0.263471 -1.16377 -0.102725 0.41948 0.700634 1.51521 2.19387 1.83842 1.12424 0.996726 -0.957468 0.929632 0.139132 -0.563898 0.24913 -0.557904 0.217002 0.0759046 -0.247942 0.606906 -0.590527 -0.201486 -0.849422 -0.273152 -2.37669 -1.38521 -1.04913 -1.22365 -0.408847 0.329377 0.0395856 0.478308 1.76599 1.00866 0.771956 1.3081 0.510765 0.0101613 -0.487251 0.0567211 -0.264755 0.304838 -0.221594 0.0572632 0.00236037 -0.553706 -0.596356 -0.268754 -1.62812 -1.46461 -0.83316 -0.261934 -2.32225 -1.14603 1.00038 0.661298 0.516537 0.692799 0.660798 -0.00849873 1.40257 1.75469 1.61038 1.55544 -0.0626802 0.733561 0.640248 -0.143395 0.401113 -0.695307 0.342834 -0.907203 -1.56075 0.00331749 0.31092 -1.16674 0.352389 -0.553721 -0.872461 -0.863273 -2.8385 1.31146 1.26925 -0.129216 1.20132 0.205907 0.991596 -0.220389 0.624308 0.650142 0.453408 0.114911 0.599928 0.813623 0.380896 -0.47965 0.244183 -0.194883 -0.529308 0.141729 -1.02481 -1.73769 -0.0248238 0.430689 0.871547 1.36406 -0.108878 -1.37452 -2.76597 0.650833 0.306795 -0.170728 -0.527557 -0.501519 -0.412354 -0.956153 -0.811136 -0.0806804 0.707857 0.0557998 0.952958 0.673909 0.844966 0.899913 -0.0540536 -0.370107 0.150492 -1.34369 -0.0279421 -0.531776 0.510745 0.0883841 0.391217 2.02187 0.406211 -1.43796 -2.3558 0.654689 0.229559 -1.9229 -1.55947 -1.30808 -2.05029 -1.71247 -1.66835 -1.933 -1.18251 -0.930657 -1.00198 -0.623013 -0.778741 0.649746 0.645917 0.707549 -0.80567 0.0921441 -0.443429 2.23394 1.97714 1.84732 1.60849 2.91132 1.29657 -1.1344 -2.26493 -1.01609 -0.314825 0.0279354 -1.46335 -0.7402 -0.793193 -2.05757 -1.37576 -1.17449 -1.02609 0.425418 0.255183 0.805625 0.585009 0.31006 0.481144 -0.23524 0.929611 1.23554 1.73371 0.940661 0.490729 1.93079 2.38695 1.71541 2.05227 -0.15508 -1.35406 -0.361301 -0.041085 -0.41797 -0.0121492 -0.277383 -0.968826 -0.425892 -0.667327 -1.09851 -1.29369 0.111433 -0.0070458 -0.322232 -0.228983 -0.518197 -0.811273 1.03076 0.0383795 2.12742 0.787101 2.34613 0.719615 1.03619 0.478857 0.610893 0.954939 0.95959 -0.429307 0.417236 0.0556014 -0.665834 -0.584398 0.451506 -0.153862 0.429079 -0.457778 -1.36702 0.1031 -0.518549 -0.0977719 -0.95747 0.50188 -0.799319 -0.787201 -0.0374546 1.25674 0.0588879 1.14894 1.05605 1.14214 0.655017 -2.60824e-05 0.586057 -0.431453 -0.335672 0.0460274 0.923979 0.976731 0.480848 0.148315 -0.4359 0.0854731 -0.159039 0.516632 -1.23746 -0.747615 0.743116 0.00940419 0.406607 0.957579 0.160107 0.427748 0.881829 1.28702 1.65389 1.55004 0.351716 0.1653 0.213822 -0.227988 -0.149886 1.60589 0.158315 0.717879 0.526339 0.503015 -0.149291 1.23052 -0.657683 0.499657 -0.088217 -0.88739 0.0101736 -1.17199 -0.932527 -0.156425 0.0842758 -0.0289687 0.673452 0.316133 0.436232 1.12749 0.150786 0.984665 0.963231 